1.292853802442550659e-01 -8.425301313400268555e-02 7.744339853525161743e-02 -8.171917870640754700e-03 -7.101375609636306763e-02 3.295192122459411621e-01 1.889435350894927979e-01 3.332589566707611084e-01 -1.339706685394048691e-02 2.550389058887958527e-02 -4.428744316101074219e-01 3.914261162281036377e-01 3.930830061435699463e-01 -1.602474600076675415e-02 1.059046149253845215e+00 1.218638494610786438e-01 -3.101256489753723145e-01 3.197389841079711914e-01 -2.734168767929077148e-01 4.304108023643493652e-01
-2.475550621747970581e-01 -5.786801222711801529e-03 -5.556285381317138672e-01 -2.798663079738616943e-01 -3.484758138656616211e-01 -8.162776380777359009e-02 -3.720761537551879883e-01 1.124785244464874268e-01 4.424244537949562073e-02 2.688196301460266113e-01 -5.856468528509140015e-02 -1.832011789083480835e-01 -7.488562911748886108e-02 8.753262460231781006e-03 -1.214989274740219116e-01 7.427101135253906250e-01 -2.389636188745498657e-01 2.041224539279937744e-01 -3.803952038288116455e-02 2.558813095092773438e-01
