-3.848101496696472168e-01
5.493527054786682129e-01
-8.072806894779205322e-02
4.130249023437500000e-01
-1.389685720205307007e-01
-4.825878143310546875e-01
1.115583106875419617e-01
-1.856785416603088379e-01
4.135956764221191406e-01
-3.105306439101696014e-02
-1.666971296072006226e-01
-8.210172504186630249e-02
5.738241970539093018e-02
1.293144226074218750e-01
-4.457668662071228027e-01
-4.542223513126373291e-01
-8.799887448549270630e-02
-1.111120954155921936e-01
1.516483306884765625e+00
3.117501437664031982e-01
5.928791165351867676e-01
1.988554745912551880e-01
2.107010632753372192e-01
2.609580457210540771e-01
-2.744355238974094391e-02
6.509097218513488770e-01
4.931248724460601807e-01
1.173229739069938660e-01
-3.089417889714241028e-02
-1.043320540338754654e-02
1.847735345363616943e-01
4.180603027343750000e-01
1.511649694293737411e-02
2.104561626911163330e-01
9.675308465957641602e-01
4.171177148818969727e-01
2.345161736011505127e-01
2.443797141313552856e-01
4.439377188682556152e-01
3.689281344413757324e-01
9.822263568639755249e-02
-5.019392445683479309e-02
2.966341003775596619e-02
4.663942381739616394e-02
-1.593098193407058716e-01
2.560476362705230713e-01
-1.063028723001480103e-01
7.773704081773757935e-02
1.763280481100082397e-02
-3.720958530902862549e-02
-7.660659402608871460e-02
-1.479286700487136841e-01
1.882312702946364880e-03
-8.526695519685745239e-02
1.336382329463958740e-01
2.718769572675228119e-02
-1.282629668712615967e-01
6.332815159112215042e-03
-4.418480023741722107e-02
-4.209105670452117920e-02
4.089215770363807678e-02
1.904827803373336792e-01
-8.192758075892925262e-03
9.281358122825622559e-02
8.534970879554748535e-02
2.456399798393249512e-02
-8.623743779025971889e-04
9.900800883769989014e-03
1.133286859840154648e-02
-7.150155305862426758e-02
1.465833634138107300e-01
2.659000456333160400e-01
4.532343149185180664e-02
1.854628175497055054e-01
1.748675554990768433e-01
2.093196511268615723e-01
2.857488095760345459e-01
2.466638982295989990e-01
-1.664167940616607666e-01
3.182328771799802780e-03
