4.225313961505889893e-01 6.444694995880126953e-01 -1.290762126445770264e-01 -3.432465791702270508e-01 6.036160513758659363e-02 3.704401850700378418e-01 2.418894171714782715e-01 -7.191148400306701660e-02 -3.086860775947570801e-01 7.093014568090438843e-02 -1.101511642336845398e-01 1.041937842965126038e-01 -1.633971780538558960e-01 -5.141420755535364151e-03 1.678705215454101562e-01 -3.710770308971405029e-01 -2.901090085506439209e-01 -7.821592688560485840e-02 8.054973483085632324e-01 1.166772022843360901e-01
2.381174713373184204e-01 4.685738980770111084e-01 4.501847624778747559e-01 -1.318426430225372314e-01 3.983926773071289062e-01 -1.566569060087203979e-01 4.360323548316955566e-01 -7.718076556921005249e-02 -2.108149230480194092e-01 1.714348196983337402e-01 2.150248177349567413e-02 1.652087271213531494e-01 -4.771596491336822510e-01 1.575843989849090576e-01 2.379058450460433960e-01 -9.449084103107452393e-02 -1.322560459375381470e-01 -1.782267540693283081e-01 -4.548227488994598389e-01 8.235253095626831055e-01
