-2.339624464511871338e-01 -5.482040643692016602e-01 1.838211864233016968e-01 -3.902827501296997070e-01 9.135546535253524780e-02 -1.739629954099655151e-01
-2.641337215900421143e-01 -2.010605931282043457e-01 -2.187878042459487915e-01 -4.929653927683830261e-02 -1.013382226228713989e-01 9.300792217254638672e-02
-8.820252120494842529e-02 -4.533015191555023193e-02 1.407791525125503540e-01 -9.063638746738433838e-02 1.411589235067367554e-01 2.032181620597839355e-01
-1.375466883182525635e-01 6.351777315139770508e-01 3.251185715198516846e-01 -2.292671799659729004e-01 4.993955492973327637e-01 -1.964763104915618896e-01
-9.148686379194259644e-02 3.126684427261352539e-01 -2.790547609329223633e-01 1.297633945941925049e-01 -1.939090788364410400e-01 -1.731246858835220337e-01
5.970928668975830078e-01 -1.932688653469085693e-01 6.638141721487045288e-02 4.065795242786407471e-02 5.327311158180236816e-02 -2.018124461174011230e-01
-3.929673135280609131e-01 -4.218621253967285156e-01 6.380213052034378052e-02 -7.278829216957092285e-01 -1.022932529449462891e-01 -3.861671984195709229e-01
2.944755554199218750e-01 3.881844580173492432e-01 -9.501285851001739502e-02 2.058687992393970490e-02 -1.239639744162559509e-01 8.984237909317016602e-03
-8.237200230360031128e-02 -3.332798480987548828e-01 -1.309176087379455566e-01 -7.372407615184783936e-02 -2.681071162223815918e-01 -3.697953224182128906e-01
1.971158385276794434e-01 3.856885135173797607e-01 6.086512282490730286e-02 -2.062848955392837524e-02 -1.935516744852066040e-01 -2.131326943635940552e-01
2.772383093833923340e-01 2.865429222583770752e-01 1.400052189826965332e+00 -2.828718125820159912e-01 9.685220122337341309e-01 5.786787271499633789e-01
-3.662847578525543213e-01 -3.748464882373809814e-01 -1.905098259449005127e-01 -8.362941443920135498e-02 7.577867805957794189e-02 -8.278890699148178101e-02
-5.589674413204193115e-02 -2.883168160915374756e-01 1.929254084825515747e-01 1.311517655849456787e-01 -4.006249830126762390e-02 2.048029750585556030e-02
7.299686670303344727e-01 -3.649807274341583252e-01 5.803456902503967285e-01 -6.136848330497741699e-01 7.008872032165527344e-01 -5.956329703330993652e-01
2.267583906650543213e-01 -6.296220421791076660e-02 -1.403779387474060059e-01 3.518927693367004395e-01 -2.163045704364776611e-01 3.934532105922698975e-01
-7.313649654388427734e-01 -6.513544172048568726e-02 -1.776779815554618835e-02 1.080445945262908936e-01 1.422415971755981445e-01 -4.249092563986778259e-02
-8.153659701347351074e-01 3.628406226634979248e-01 7.742930203676223755e-02 -3.298548161983489990e-01 2.760543823242187500e-01 -3.372952938079833984e-01
2.576248943805694580e-01 -4.602767229080200195e-01 6.869982182979583740e-02 -3.100912868976593018e-01 -3.080641329288482666e-01 -2.670599222183227539e-01
-2.983636856079101562e-01 6.645013391971588135e-02 1.159527823328971863e-01 2.131832540035247803e-01 1.345619559288024902e-01 2.143050916492938995e-02
2.928727865219116211e-01 4.989395439624786377e-01 -4.829743504524230957e-02 4.615278542041778564e-01 -7.689128071069717407e-02 3.039378225803375244e-01
5.152088999748229980e-01 9.558452665805816650e-02 2.811157107353210449e-01 -2.318703196942806244e-02 1.971895433962345123e-02 1.690175980329513550e-01
-1.619522571563720703e-01 -3.395445942878723145e-01 1.938299834728240967e-01 4.395651072263717651e-02 -3.454118967056274414e-02 1.349502056837081909e-01
5.663048028945922852e-01 3.008205294609069824e-01 -2.507080137729644775e-01 -1.585788428783416748e-01 -2.874251604080200195e-01 1.017474234104156494e-01
-5.119178968016058207e-05 -1.964772045612335205e-01 1.080866381525993347e-01 -7.886669784784317017e-02 -2.420579195022583008e-01 1.552076935768127441e-01
2.349231205880641937e-02 -2.206297367811203003e-01 4.973280802369117737e-02 -7.414020132273435593e-03 3.903023898601531982e-02 -1.026605814695358276e-02
5.418409109115600586e-01 -2.900196015834808350e-01 -1.145274117588996887e-01 4.930390790104866028e-02 9.902631491422653198e-02 7.874076813459396362e-02
-6.401519477367401123e-02 -1.410393118858337402e-01 -1.375415027141571045e-01 2.769697904586791992e-01 -1.605173349380493164e-01 3.436949849128723145e-01
4.517250955104827881e-01 2.789559960365295410e-01 9.978353977203369141e-02 -4.822450876235961914e-02 1.260847151279449463e-01 3.417279943823814392e-02
3.770449459552764893e-01 -1.506274044513702393e-01 1.139528024941682816e-02 -1.199540570378303528e-01 2.270939759910106659e-02 7.065030187368392944e-02
2.450812906026840210e-01 1.103856116533279419e-01 -1.681985706090927124e-02 2.829337418079376221e-01 -1.981790363788604736e-01 2.322877347469329834e-01
-2.866473980247974396e-02 -1.259632557630538940e-01 3.671326398849487305e+00 -1.936094276607036591e-02 3.279051780700683594e+00 1.443567872047424316e-01
-1.267068386077880859e-01 -3.327654600143432617e-01 1.247261241078376770e-01 -2.437485568225383759e-02 3.628087416291236877e-02 1.599844545125961304e-01
-1.031732782721519470e-01 -3.818491399288177490e-01 1.040880475193262100e-02 -7.848382741212844849e-02 -1.054216455668210983e-02 -2.869736552238464355e-01
-1.393335908651351929e-01 2.936983108520507812e-01 -3.411178886890411377e-01 -2.319784879684448242e+00 -3.855193257331848145e-01 -2.125378131866455078e+00
9.635801613330841064e-02 4.036190211772918701e-01 1.433968842029571533e-01 -3.708434104919433594e-01 8.968526497483253479e-03 -2.442837506532669067e-01
-3.029290735721588135e-01 1.689605563879013062e-01 2.636314369738101959e-02 -2.737504988908767700e-02 -1.133788377046585083e-02 2.928781881928443909e-02
-1.672063767910003662e-01 4.113225042819976807e-01 2.969733178615570068e-01 -2.357342392206192017e-01 6.487019360065460205e-02 3.148214891552925110e-02
3.536746203899383545e-01 2.760021686553955078e-01 9.415879100561141968e-02 2.639862895011901855e-01 -1.867897249758243561e-02 1.362828612327575684e-01
-2.768807411193847656e-01 -1.926477700471878052e-01 -1.096982061862945557e-01 -5.777087435126304626e-02 -1.060232594609260559e-01 1.935633569955825806e-01
2.928667068481445312e-01 5.029403567314147949e-01 -2.791534923017024994e-02 -5.512094125151634216e-02 1.091843321919441223e-01 -2.165967077016830444e-01
7.696937769651412964e-02 -2.584679722785949707e-01 8.876519650220870972e-02 -9.888346306979656219e-03 9.722438454627990723e-02 -2.821095287799835205e-02
1.734882593154907227e-01 -2.375582307577133179e-01 4.666231572628021240e-02 -4.337783530354499817e-02 -2.706486918032169342e-02 1.006258055567741394e-01
-1.726547926664352417e-01 7.815547287464141846e-02 -1.735629327595233917e-02 4.584750533103942871e-02 4.315562918782234192e-02 6.106943637132644653e-02
-1.788567155599594116e-01 1.239035278558731079e-01 2.090674042701721191e-01 -5.621847510337829590e-02 1.161743327975273132e-01 2.925174869596958160e-02
-4.578220546245574951e-01 -5.222773551940917969e-01 7.072199136018753052e-02 -4.135353118181228638e-02 1.720812730491161346e-02 4.489868134260177612e-02
-4.651882648468017578e-01 5.490741133689880371e-02 -5.043370649218559265e-02 -7.328998297452926636e-02 7.297818362712860107e-02 1.486357115209102631e-02
3.398071825504302979e-01 -1.429183185100555420e-01 -6.636963039636611938e-02 -2.031622081995010376e-01 5.743980407714843750e-02 1.357957124710083008e-01
2.395149320363998413e-01 1.510350257158279419e-01 -8.557450771331787109e-02 -2.532828152179718018e-01 3.583518415689468384e-02 -3.406852483749389648e-02
-5.107541084289550781e-01 -1.369148194789886475e-01 6.508363783359527588e-02 3.612081706523895264e-02 -2.606172114610671997e-03 2.175049670040607452e-02
1.862641796469688416e-02 2.063488215208053589e-01 1.258363481611013412e-03 1.720792502164840698e-01 9.364159777760505676e-03 -2.176248729228973389e-01
6.129537895321846008e-02 7.031233608722686768e-02 -6.093320083618164062e+01 2.143753506243228912e-02 -5.982949829101562500e+01 -7.024574559181928635e-03
-2.840901315212249756e-01 -3.557826876640319824e-01 -9.685601294040679932e-02 3.459299355745315552e-02 1.066573336720466614e-01 -3.928259387612342834e-02
-3.676894903182983398e-01 -5.209037661552429199e-01 -9.665684401988983154e-02 -7.524092681705951691e-03 9.339733421802520752e-02 5.262845195829868317e-03
1.512749046087265015e-01 3.180927783250808716e-02 2.022972553968429565e-01 5.192053985595703125e+01 -1.606972813606262207e-01 5.237837600708007812e+01
-2.143661379814147949e-01 8.654729276895523071e-02 1.689303517341613770e-01 1.003942340612411499e-01 -1.307934075593948364e-01 2.574517764151096344e-02
6.509633064270019531e-01 -1.613116413354873657e-01 7.101109623908996582e-02 2.089147269725799561e-02 -6.380816549062728882e-02 2.914035134017467499e-02
6.538249850273132324e-01 -3.040339238941669464e-02 -7.240671664476394653e-02 -2.167519778013229370e-01 6.838484853506088257e-02 6.592868268489837646e-02
-3.275175988674163818e-01 -2.285345196723937988e-01 -1.347221550531685352e-03 -4.991843551397323608e-02 9.057067334651947021e-02 5.520619451999664307e-02
3.211919367313385010e-01 5.184797570109367371e-02 1.212313175201416016e-01 6.275618076324462891e-02 -6.706082820892333984e-02 -5.435575544834136963e-02
3.885703682899475098e-01 4.687423110008239746e-01 1.285705864429473877e-01 -6.166063249111175537e-03 -5.576840043067932129e-02 5.319508910179138184e-02
1.633332222700119019e-01 2.278690934181213379e-01 -6.912962198257446289e-01 -1.404039412736892700e-01 -3.888915479183197021e-01 1.253207027912139893e-01
-3.768382966518402100e-01 -7.212103009223937988e-01 1.931344531476497650e-02 -2.160687595605850220e-01 3.132056593894958496e-01 2.229642271995544434e-01
6.990221142768859863e-01 5.949243903160095215e-01 -1.476212441921234131e-01 -5.136743932962417603e-02 1.724182367324829102e-01 -1.563595831394195557e-01
-1.963440328836441040e-01 -3.489096164703369141e-01 -2.458677142858505249e-01 1.724037975072860718e-01 -4.173978865146636963e-01 1.999694555997848511e-01
3.051910698413848877e-01 4.450238645076751709e-01 -3.991671651601791382e-02 -3.299727663397789001e-02 1.132439151406288147e-01 1.845201104879379272e-01
-4.930010437965393066e-01 4.394410923123359680e-02 -7.504095882177352905e-02 -5.376798287034034729e-02 -3.310489058494567871e-01 5.339575931429862976e-02
5.434736609458923340e-01 4.207847118377685547e-01 2.429933398962020874e-01 1.886960417032241821e-01 1.699724197387695312e-01 2.524011433124542236e-01
9.459991753101348877e-02 5.625874921679496765e-02 1.891151964664459229e-01 -1.329075265675783157e-02 -1.287128329277038574e-01 -1.797730326652526855e-01
-1.408280730247497559e-01 -1.220095553435385227e-03 -1.470010280609130859e-01 2.345578223466873169e-01 4.901038482785224915e-02 -8.421333879232406616e-02
7.382141053676605225e-02 3.098218441009521484e-01 -1.711242347955703735e-01 5.601855367422103882e-02 -2.718304991722106934e-01 3.175764679908752441e-01
-1.065880432724952698e-01 -2.312491536140441895e-01 -2.245561778545379639e-01 6.537599861621856689e-02 -3.112287223339080811e-01 6.643091142177581787e-02
-2.582586407661437988e-01 1.613232642412185669e-01 4.155339673161506653e-02 4.936743527650833130e-02 3.064051568508148193e-01 2.711223959922790527e-01
-1.511255651712417603e-02 -5.372952818870544434e-01 1.186574250459671021e-01 -3.215583562850952148e-01 -6.636571884155273438e-02 -5.061731860041618347e-02
2.987944148480892181e-02 2.924270927906036377e-01 -1.382669061422348022e-01 -2.267079427838325500e-02 1.610839068889617920e-01 -1.481362152844667435e-02
-7.300429046154022217e-02 -1.915401518344879150e-01 -3.158972263336181641e-01 -4.398117661476135254e-01 -2.739832997322082520e-01 -4.119639396667480469e-01
-2.025407999753952026e-01 -3.821059316396713257e-02 -2.520009875297546387e-01 -2.499685436487197876e-02 -1.934842020273208618e-01 -4.752016067504882812e-02
1.415662020444869995e-01 3.295406401157379150e-01 4.842887073755264282e-02 3.325652778148651123e-01 2.608137428760528564e-01 2.914939522743225098e-01
-6.904620211571455002e-03 1.479268372058868408e-01 1.199717400595545769e-03 1.015931740403175354e-01 2.614678740501403809e-01 -9.363384544849395752e-02
-1.759172976016998291e-01 -2.206123322248458862e-01 -1.375121250748634338e-02 -1.804498434066772461e-01 -4.865849763154983521e-02 -2.718653082847595215e-01
-3.367172181606292725e-01 -8.495131731033325195e-01 -1.547664254903793335e-01 5.021811127662658691e-01 -2.776821851730346680e-01 -5.907042026519775391e-01
