3.005325496196746826e-01
-4.815154671669006348e-01
-1.957072764635086060e-01
1.350557059049606323e-01
7.459092885255813599e-02
-2.056988030672073364e-01
-2.458204515278339386e-02
2.223878055810928345e-01
9.366262704133987427e-03
-3.548775017261505127e-01
9.834371805191040039e-01
-8.903418481349945068e-02
5.418012663722038269e-02
1.066527724266052246e+00
1.752361422404646873e-03
-6.087857112288475037e-02
1.835670322179794312e-01
-1.804772168397903442e-01
-3.877873420715332031e-01
1.287283152341842651e-01
2.730409502983093262e-01
8.184439539909362793e-01
7.369760870933532715e-01
3.571271598339080811e-01
3.178123831748962402e-01
1.979429870843887329e-01
3.483383357524871826e-01
1.255966871976852417e-01
4.104490876197814941e-01
4.045752435922622681e-02
4.096563756465911865e-01
2.526485323905944824e-01
1.518512726761400700e-03
4.258086085319519043e-01
1.100205350667238235e-02
2.829760909080505371e-01
-8.601506799459457397e-02
6.034730076789855957e-01
7.601639628410339355e-01
2.845564484596252441e-01
4.913832619786262512e-02
-3.812619298696517944e-02
-1.286841034889221191e-01
1.815502941608428955e-01
2.298336289823055267e-02
-1.820590198040008545e-01
8.907362818717956543e-02
2.355336844921112061e-01
1.709521561861038208e-01
1.810961216688156128e-01
5.066211149096488953e-02
-1.294832676649093628e-01
-1.643035933375358582e-02
1.082413345575332642e-01
-3.681672737002372742e-02
-1.977540701627731323e-01
-6.790760159492492676e-02
1.383843272924423218e-01
-7.319258153438568115e-02
-2.200335115194320679e-01
1.093673054128885269e-02
3.242895007133483887e-01
-1.315968390554189682e-02
2.473236918449401855e-01
9.673547744750976562e-02
1.681992411613464355e-01
2.802617289125919342e-02
2.321881204843521118e-01
9.532782435417175293e-02
2.150626778602600098e-01
-2.374545782804489136e-01
-9.188263863325119019e-02
2.279835343360900879e-01
-1.859642267227172852e-01
-1.378541737794876099e-01
1.955873519182205200e-01
-8.134957402944564819e-02
1.300943195819854736e-01
5.331536531448364258e-01
7.043715119361877441e-01
