1.200238466262817383e-01
-3.159866631031036377e-01
-2.650760412216186523e-01
2.807825058698654175e-02
2.017282545566558838e-01
-1.729397922754287720e-01
9.513323754072189331e-02
-1.184251904487609863e-01
1.916246302425861359e-02
7.469870615750551224e-03
8.936459422111511230e-01
-6.154707446694374084e-02
1.570686511695384979e-02
1.086524367332458496e+00
-4.937663325108587742e-04
2.367575317621231079e-01
1.416997760534286499e-01
-3.777549266815185547e-01
-1.542096287012100220e-01
4.341112971305847168e-01
2.216388732194900513e-01
7.780178189277648926e-01
4.966612756252288818e-01
2.311538206413388252e-03
3.364338576793670654e-01
3.012562990188598633e-01
2.736849486827850342e-01
2.127854377031326294e-01
1.738678663969039917e-01
7.106688618659973145e-02
2.485041767358779907e-01
1.787869334220886230e-01
2.261451035737991333e-01
1.162349432706832886e-01
3.645411729812622070e-01
2.340287268161773682e-01
5.384296923875808716e-02
3.392231762409210205e-01
5.176118612289428711e-01
7.953310012817382812e-02
-7.722233235836029053e-02
2.806308306753635406e-02
-7.084967941045761108e-02
5.300831049680709839e-02
-1.791885308921337128e-02
-1.662100255489349365e-01
-3.088431805372238159e-02
2.002924382686614990e-01
1.332423537969589233e-01
1.706278920173645020e-01
-1.654725670814514160e-01
2.266373783349990845e-01
-2.325062304735183716e-01
-1.470783799886703491e-01
8.672050386667251587e-02
2.329960092902183533e-02
-2.084684371948242188e-01
2.297398447990417480e-02
-4.610449075698852539e-02
-2.525247037410736084e-01
3.947713971138000488e-02
4.481928646564483643e-01
7.686738669872283936e-02
2.496016323566436768e-01
1.107411980628967285e-01
3.120323121547698975e-01
2.632804512977600098e-01
1.573457121849060059e-01
2.113210856914520264e-01
-1.179566383361816406e-01
-1.422988772392272949e-01
1.906246244907379150e-01
1.808255612850189209e-01
-5.133337974548339844e-01
2.360503934323787689e-02
1.089776977896690369e-01
2.507855594158172607e-01
3.260888457298278809e-01
6.060085892677307129e-01
5.204020738601684570e-01
