-1.088647603988647461e+00 1.556773334741592407e-01 3.255706727504730225e-01 6.296890974044799805e-01 4.053643047809600830e-01 1.668505072593688965e-01 4.604017436504364014e-01 -2.766310870647430420e-01 -7.847798466682434082e-01 -1.913071274757385254e-01 -4.111250936985015869e-01 7.380641698837280273e-01 4.293116927146911621e-01 1.176377609372138977e-01 -9.817673265933990479e-02 -6.269802451133728027e-01 -2.354058995842933655e-02 5.017644539475440979e-02 6.909399032592773438e-01 2.798067331314086914e-01
-5.055464506149291992e-01 -3.678277134895324707e-01 9.146418571472167969e-01 -2.091937810182571411e-01 -4.701437354087829590e-01 9.455665349960327148e-01 -2.373485118150711060e-01 -4.080572426319122314e-01 -1.561637669801712036e-01 1.272434294223785400e-01 -4.277261719107627869e-02 -4.775344431400299072e-01 2.321420051157474518e-02 -6.623606383800506592e-02 -4.937291443347930908e-01 1.179745495319366455e-01 4.079232811927795410e-01 -1.611681878566741943e-01 -1.395141035318374634e-01 5.724106431007385254e-01
-3.984227776527404785e-02 4.497759342193603516e-01 -2.952114939689636230e-01 -3.644573986530303955e-01 1.986329108476638794e-01 9.253306388854980469e-01 2.572079002857208252e-01 -4.654394388198852539e-01 -7.538528442382812500e-01 -3.022328019142150879e-01 -1.001352369785308838e-01 -4.618407487869262695e-01 9.627566337585449219e-01 1.853116005659103394e-01 1.055876538157463074e-01 -8.301761001348495483e-02 -3.432944715023040771e-01 2.637583762407302856e-02 3.889796435832977295e-01 -9.951161593198776245e-02
1.786275394260883331e-02 2.326717078685760498e-01 1.811048388481140137e-01 -4.140753746032714844e-01 -4.889725148677825928e-01 1.462107151746749878e-02 3.272115588188171387e-01 9.862311184406280518e-02 -4.033341705799102783e-01 2.599941194057464600e-01 4.670511782169342041e-01 2.355596870183944702e-01 6.199607253074645996e-02 3.044958710670471191e-01 1.794056445360183716e-01 -1.721757799386978149e-01 8.629518002271652222e-02 4.400730505585670471e-02 -7.173212170600891113e-01 2.596817016601562500e-01
-3.194234073162078857e-01 7.808137685060501099e-02 -3.440244495868682861e-01 -1.672200858592987061e-01 8.475179970264434814e-02 1.636225730180740356e-01 1.372705847024917603e-01 -4.027069360017776489e-02 -1.137784793972969055e-01 3.857868313789367676e-01 -2.533475756645202637e-01 -1.791644282639026642e-02 -5.045829415321350098e-01 3.603080809116363525e-01 -3.869764506816864014e-01 -1.995045393705368042e-01 -3.068536520004272461e-01 2.835305631160736084e-01 -4.012560248374938965e-01 -4.608196616172790527e-01
6.372141838073730469e-01 -8.867454598657786846e-04 2.197543233633041382e-01 -2.048377543687820435e-01 -1.584964841604232788e-01 2.816065549850463867e-01 5.189459919929504395e-01 -1.493529826402664185e-01 3.430439829826354980e-01 -2.927932441234588623e-01 3.119048476219177246e-01 1.294679939746856689e-01 1.977076195180416107e-02 -3.730107843875885010e-01 -1.096885427832603455e-01 6.696727126836776733e-02 2.680591046810150146e-01 -2.437508553266525269e-01 7.233278155326843262e-01 2.603914737701416016e-01
1.443206667900085449e-01 2.374180108308792114e-01 -2.804456837475299835e-02 2.229621559381484985e-01 3.231279850006103516e-01 3.630469739437103271e-02 5.238333344459533691e-02 6.675318628549575806e-02 1.211333200335502625e-01 -1.977883130311965942e-01 -1.383164525032043457e-01 1.750884056091308594e-01 -3.399707078933715820e-01 -8.222939968109130859e-01 -3.942757472395896912e-02 9.235118329524993896e-02 -2.982147336006164551e-01 3.394179344177246094e-01 -4.776295274496078491e-02 -3.477573692798614502e-01
-6.399671435356140137e-01 -4.717295765876770020e-01 2.552518062293529510e-02 -9.850195795297622681e-02 -1.115588322281837463e-01 -1.553951054811477661e-01 -2.232997491955757141e-02 -8.234630525112152100e-02 5.326794087886810303e-02 -3.714154660701751709e-01 3.361750021576881409e-02 -1.963310390710830688e-01 1.146990731358528137e-01 -1.198360547423362732e-01 -2.006457149982452393e-01 -2.720489501953125000e-01 9.509355574846267700e-02 5.266910791397094727e-01 2.341994345188140869e-01 4.479841515421867371e-02
-5.085912346839904785e-01 -1.584021687507629395e+00 1.303615331649780273e+00 -3.301510810852050781e-01 -4.625639021396636963e-01 -1.753751039505004883e-01 -2.809544205665588379e-01 -1.165027916431427002e-01 3.845170140266418457e-01 6.623871922492980957e-01 1.305483341217041016e+00 -6.834682226181030273e-01 8.643056750297546387e-01 -3.152375817298889160e-01 3.515218943357467651e-02 -2.823685109615325928e-01 3.356177210807800293e-01 -9.302102923393249512e-01 -9.671805500984191895e-01 7.055813670158386230e-01
1.261239200830459595e-01 1.145151108503341675e-01 1.255126446485519409e-01 -1.684435606002807617e-01 2.633037976920604706e-02 9.816315770149230957e-02 1.237248107790946960e-01 -1.167652755975723267e-01 -3.686995506286621094e-01 -9.294127672910690308e-02 -6.741837412118911743e-02 -5.451216548681259155e-02 -2.916283607482910156e-01 -6.744287442415952682e-03 -4.535504579544067383e-01 2.376844733953475952e-01 4.488930404186248779e-01 4.842446744441986084e-01 1.073596179485321045e-01 2.778420448303222656e-01
5.183981060981750488e-01 -1.552050262689590454e-01 -3.285892009735107422e-01 3.254367113113403320e+00 -1.993178427219390869e-01 -3.035188674926757812e+00 -2.042511850595474243e-01 1.029542803764343262e+00 -8.185859322547912598e-01 8.459976315498352051e-01 -4.627892971038818359e+00 3.015190958976745605e-01 -2.662652134895324707e-01 5.275475978851318359e-01 2.070676803588867188e+00 -8.139061927795410156e-01 -6.285191327333450317e-02 3.511512875556945801e-01 1.454365730285644531e+00 1.482724770903587341e-02
1.318753063678741455e-01 -3.346218466758728027e-01 8.491831831634044647e-03 1.897800266742706299e-01 1.264853775501251221e-01 2.147745341062545776e-02 4.530883580446243286e-02 -8.395561575889587402e-02 -7.767264544963836670e-02 -2.254309952259063721e-01 2.149010002613067627e-01 7.781118154525756836e-02 -1.492148786783218384e-01 -2.703198194503784180e-01 -6.072176620364189148e-02 -1.507583260536193848e-01 -1.139359250664710999e-01 3.678051754832267761e-03 -5.673277750611305237e-02 -4.342972040176391602e-01
-1.635804772377014160e-01 -1.478035300970077515e-01 2.297052592039108276e-01 -2.463814765214920044e-01 3.165296018123626709e-01 2.037993818521499634e-01 3.781318366527557373e-01 -1.463501304388046265e-01 1.501626241952180862e-02 1.390688121318817139e-01 -1.955323219299316406e-01 4.286228418350219727e-01 2.702374458312988281e-01 1.210586801171302795e-01 1.655590832233428955e-01 -1.680085361003875732e-01 -2.265628613531589508e-02 2.548624873161315918e-01 -8.596982061862945557e-02 1.309662610292434692e-01
-1.503661274909973145e+00 1.311183691024780273e+00 -2.621926069259643555e+00 -8.906067609786987305e-01 2.050662636756896973e-01 -6.823884844779968262e-01 1.906657576560974121e+00 7.275849580764770508e-02 -1.704098433256149292e-01 2.575611829757690430e+00 1.288676738739013672e+00 3.803081810474395752e-01 -9.692872762680053711e-01 -2.418905735015869141e+00 -8.192538619041442871e-01 4.045027196407318115e-01 2.759909927845001221e-01 -1.852711200714111328e+00 1.078952923417091370e-01 -1.968459486961364746e-01
2.670449018478393555e-01 2.781337201595306396e-01 2.596688568592071533e-01 -2.334550321102142334e-01 -4.573800861835479736e-01 9.588011354207992554e-02 -5.923518911004066467e-02 -1.494847685098648071e-01 -3.406669497489929199e-01 -3.585408329963684082e-01 -3.721593022346496582e-01 -2.359122633934020996e-01 4.560249447822570801e-01 1.356056034564971924e-01 -2.570769190788269043e-01 3.257484436035156250e-01 1.313927620649337769e-01 -9.051340818405151367e-02 3.814837336540222168e-01 -1.318668574094772339e-02
-2.351726740598678589e-01 -2.193070799112319946e-01 -3.169328272342681885e-01 -1.271134018898010254e-01 2.114534825086593628e-01 -1.756984442472457886e-01 -1.359757483005523682e-01 9.193380922079086304e-02 2.780515849590301514e-01 -1.912263035774230957e-01 5.489777773618698120e-02 -1.674957424402236938e-01 2.366815060377120972e-01 -8.943396806716918945e-02 -9.219292551279067993e-02 8.338560163974761963e-02 -1.012772992253303528e-01 6.738905906677246094e-01 -1.298678368330001831e-01 -2.202052325010299683e-01
4.301799461245536804e-02 5.218010544776916504e-01 -5.039136856794357300e-02 1.187505722045898438e-01 3.826615214347839355e-01 3.064042329788208008e-01 5.593898892402648926e-01 1.217704340815544128e-01 -1.947975903749465942e-01 1.447893083095550537e-01 1.052561104297637939e-01 6.944078803062438965e-01 -6.934293508529663086e-01 -9.203598499298095703e-01 -4.877636209130287170e-02 -7.074888050556182861e-02 -1.417409628629684448e-01 4.535255730152130127e-01 -6.806151568889617920e-02 -2.859764732420444489e-03
1.068012267351150513e-01 -1.859482824802398682e-01 2.423319071531295776e-01 -4.454865455627441406e-01 -6.555707007646560669e-02 5.810621380805969238e-01 2.225590348243713379e-01 -2.725483775138854980e-01 -3.538884520530700684e-01 -4.222501218318939209e-01 1.597751975059509277e-01 1.577592641115188599e-01 1.357247978448867798e-01 -1.246943324804306030e-01 -4.566490948200225830e-01 2.459084615111351013e-02 1.765218228101730347e-01 -1.469752490520477295e-01 -2.857031859457492828e-02 8.922772109508514404e-02
-5.655414611101150513e-02 1.118540167808532715e-01 -2.264707088470458984e-01 -5.545318126678466797e-01 -3.006434142589569092e-01 2.061325013637542725e-01 -3.518393933773040771e-01 -2.448710203170776367e-01 -6.937492489814758301e-01 1.820708364248275757e-01 2.582461573183536530e-02 5.642330739647150040e-03 3.675900995731353760e-01 2.479701638221740723e-01 2.485090494155883789e-02 1.632120343856513500e-03 4.799181222915649414e-01 -3.723708540201187134e-02 -2.178399562835693359e-01 5.067430734634399414e-01
-4.287718236446380615e-01 -6.820123195648193359e-01 -7.668308019638061523e-01 1.758753806352615356e-01 -5.184622481465339661e-02 -2.365092374384403229e-02 1.877277344465255737e-02 5.158314108848571777e-02 -1.450910270214080811e-01 7.316316962242126465e-01 8.676052093505859375e-02 -4.982104003429412842e-01 3.477018177509307861e-01 6.157327294349670410e-01 -3.687032461166381836e-01 2.150879949331283569e-01 8.526384830474853516e-02 2.008084766566753387e-02 6.764592528343200684e-01 5.535788834095001221e-02
4.442502185702323914e-02 2.655338943004608154e-01 5.149042606353759766e-01 1.750635802745819092e-01 -1.878180205821990967e-01 -1.020814850926399231e-01 2.649838626384735107e-01 4.725836217403411865e-01 -5.579666793346405029e-02 1.727022826671600342e-01 5.277788639068603516e-01 1.149974912405014038e-01 -2.791146337985992432e-01 -6.447812914848327637e-02 -5.291652679443359375e-01 -1.479268223047256470e-01 1.974145025014877319e-01 -3.524068892002105713e-01 6.011738777160644531e-01 6.746366620063781738e-01
5.167118906974792480e-01 2.340434677898883820e-02 -8.863652944564819336e-01 6.292105913162231445e-01 5.189799889922142029e-02 -7.717894762754440308e-02 -2.017974480986595154e-02 7.909745573997497559e-01 7.368730306625366211e-01 9.445534944534301758e-01 -7.322508096694946289e-02 1.940013915300369263e-01 -3.105075955390930176e-01 2.065102607011795044e-01 4.356822669506072998e-01 -5.215646624565124512e-01 -4.810127019882202148e-01 -2.106338273733854294e-03 2.068032324314117432e-01 1.628713160753250122e-01
7.544705867767333984e-01 2.608624398708343506e-01 8.987177163362503052e-02 8.710422515869140625e-01 -5.339339002966880798e-02 -5.005477070808410645e-01 -3.896487876772880554e-02 4.306407570838928223e-01 6.536924242973327637e-01 1.044910311698913574e+00 -2.665312727913260460e-03 -6.093443036079406738e-01 -3.371982574462890625e-01 -1.240649148821830750e-01 -2.051997929811477661e-01 -1.731240749359130859e-02 -5.593292713165283203e-01 1.420254856348037720e-01 5.065178871154785156e-01 -7.620579600334167480e-01
4.468428492546081543e-01 -4.042536914348602295e-01 4.920212328433990479e-01 -9.423504769802093506e-02 -1.912696063518524170e-01 -5.781161189079284668e-01 -2.043392596533522010e-04 1.374038010835647583e-01 7.060866057872772217e-02 -1.543803811073303223e-01 3.201991319656372070e-01 1.715287417173385620e-01 -4.056547954678535461e-02 -1.979093551635742188e-01 -9.448996186256408691e-01 -1.219028979539871216e-01 -4.589838441461324692e-03 -7.226547598838806152e-02 -2.127601206302642822e-01 -1.232550293207168579e-01
2.733228802680969238e-01 -5.641044303774833679e-02 -4.141444265842437744e-01 -4.659897461533546448e-02 -2.426903322339057922e-02 -1.992982476949691772e-01 2.498157471418380737e-01 1.738886348903179169e-02 3.003100454807281494e-01 2.555453181266784668e-01 -2.586037516593933105e-01 8.468786627054214478e-02 -5.157198905944824219e-01 2.491598576307296753e-02 -3.275650441646575928e-01 -2.525854706764221191e-01 -1.684534251689910889e-01 3.064222037792205811e-01 -4.444635212421417236e-01 -5.920962691307067871e-01
1.313999593257904053e-01 4.079433381557464600e-01 4.611982405185699463e-01 4.544327035546302795e-02 -3.659248352050781250e-01 -1.786061078310012817e-01 3.522186875343322754e-01 -1.198686938732862473e-02 2.896395884454250336e-02 -1.722061932086944580e-01 2.249292433261871338e-01 -8.611988276243209839e-02 -1.866250634193420410e-01 2.884844243526458740e-01 -4.355791509151458740e-01 3.691871464252471924e-01 4.436852931976318359e-01 -6.905435323715209961e-01 -4.917604476213455200e-02 2.502425909042358398e-01
-2.054321616888046265e-01 -1.471419930458068848e-01 5.998217687010765076e-02 1.071218773722648621e-01 4.575461149215698242e-02 -4.244587421417236328e-01 1.903208047151565552e-01 1.431005746126174927e-01 -9.465800970792770386e-02 -1.026442870497703552e-01 5.545538850128650665e-03 -1.906543672084808350e-01 -4.898776412010192871e-01 5.629959106445312500e-01 -4.969708323478698730e-01 4.385168198496103287e-03 -2.500400543212890625e-01 5.005900748074054718e-03 -4.161316156387329102e-01 -3.508550822734832764e-01
1.983266174793243408e-01 -5.594975501298904419e-02 8.151673525571823120e-02 1.871119141578674316e-01 -1.387037336826324463e-03 1.051407754421234131e-01 -3.908654674887657166e-02 2.825831472873687744e-01 -1.380082312971353531e-02 9.894657880067825317e-02 -1.387435793876647949e-01 1.064612716436386108e-01 -2.357557713985443115e-01 -2.192598581314086914e-02 -1.558371931314468384e-01 1.813445612788200378e-02 1.317756175994873047e-01 2.656088471412658691e-01 4.437988698482513428e-01 -1.955302618443965912e-02
-2.870173156261444092e-01 -3.200356960296630859e-01 8.957269787788391113e-01 6.362838298082351685e-02 3.946027159690856934e-02 -2.442095279693603516e-01 1.678320765495300293e-02 -1.506992336362600327e-02 1.101536899805068970e-01 1.795950382947921753e-01 1.614471793174743652e+00 -6.255983114242553711e-01 -8.095747232437133789e-01 5.494847893714904785e-02 -4.717727601528167725e-01 -3.561355173587799072e-02 3.026041984558105469e-01 -2.525926530361175537e-01 -7.253008484840393066e-01 -1.526327580213546753e-01
-6.036090850830078125e-02 2.948469221591949463e-01 -1.270200461149215698e-01 2.498842217028141022e-02 2.117139995098114014e-01 -1.680797934532165527e-01 4.296057522296905518e-01 1.547117829322814941e-01 -3.121547587215900421e-02 2.466289140284061432e-02 -8.483539521694183350e-02 2.301283329725265503e-01 -4.850429296493530273e-01 4.171735346317291260e-01 1.143595725297927856e-01 -8.890929818153381348e-02 1.608860939741134644e-01 2.098156698048114777e-02 -1.436732262372970581e-01 2.393826544284820557e-01
-5.284937024116516113e-01 -1.355327516794204712e-01 -9.613564610481262207e-01 -2.021447382867336273e-02 -4.295141249895095825e-02 -2.772507667541503906e-01 6.582059264183044434e-01 7.219717502593994141e-01 1.673861265182495117e+00 4.628733992576599121e-01 -1.599962115287780762e+00 5.996349453926086426e-01 -1.210572794079780579e-01 -1.584938317537307739e-01 2.067475795745849609e+00 7.068839669227600098e-01 -6.218898296356201172e-02 3.761515319347381592e-01 6.353918910026550293e-01 -1.444358378648757935e-01
4.903476312756538391e-02 -2.889875471591949463e-01 -1.901389658451080322e-01 -2.210308099165558815e-03 4.614156112074851990e-02 -2.121745645999908447e-01 2.760971486568450928e-01 -1.783014833927154541e-02 -2.219494134187698364e-01 2.293317317962646484e-01 -4.826135560870170593e-02 9.510938823223114014e-02 3.628561273217201233e-02 1.178505346179008484e-01 -2.700068950653076172e-01 -1.044589132070541382e-01 4.946503043174743652e-02 4.199209511280059814e-01 2.299562329426407814e-03 -1.725598424673080444e-01
-1.584797911345958710e-02 -3.699615001678466797e-01 -3.653513491153717041e-01 1.794401407241821289e-01 6.833559870719909668e-01 -8.791403472423553467e-02 5.301302075386047363e-01 -2.423549592494964600e-01 3.364474177360534668e-01 2.609830200672149658e-01 4.576189443469047546e-03 6.806490421295166016e-01 6.957585364580154419e-02 -2.442667633295059204e-01 1.912710368633270264e-01 -1.160646378993988037e-01 -2.211539298295974731e-01 3.372065722942352295e-01 1.287558227777481079e-01 -3.737502992153167725e-01
2.000279188156127930e+00 -1.150600761175155640e-01 -6.815007925033569336e-01 8.099226355552673340e-01 2.176384255290031433e-02 -3.711433708667755127e-01 1.095537424087524414e+00 1.132056355476379395e+00 -3.213835358619689941e-01 3.957104980945587158e-01 -2.141607254743576050e-01 -9.920366406440734863e-01 5.013432502746582031e-01 4.572117626667022705e-01 3.812163770198822021e-01 7.190070301294326782e-02 -1.701431870460510254e-01 4.383757412433624268e-01 -6.349763870239257812e-01 -3.302774429321289062e-01
2.490750700235366821e-01 3.413490951061248779e-01 1.126841425895690918e+00 -4.453183617442846298e-03 -3.995793163776397705e-01 -9.345397353172302246e-02 7.709107547998428345e-02 -3.362191095948219299e-02 4.060963392257690430e-01 5.545807480812072754e-01 5.712046986445784569e-04 -4.347924590110778809e-01 -2.448517829179763794e-01 -4.277756214141845703e-01 -2.450731843709945679e-01 2.070779502391815186e-01 9.613656252622604370e-02 1.240472421050071716e-01 3.218767046928405762e-01 -5.129420012235641479e-02
-4.843366891145706177e-02 5.953411385416984558e-02 2.519893050193786621e-01 3.409068286418914795e-02 1.925900429487228394e-01 -1.528322845697402954e-01 -3.648880124092102051e-02 4.507178440690040588e-02 2.964803874492645264e-01 1.471682786941528320e-01 -5.067377090454101562e-01 -9.501475095748901367e-02 1.420803666114807129e-01 4.818388447165489197e-02 7.224093377590179443e-02 -4.454512894153594971e-02 -1.648382246494293213e-01 3.276131749153137207e-01 -4.006413519382476807e-01 8.229299634695053101e-02
-8.115074038505554199e-02 3.179067512974143028e-03 1.898019909858703613e-01 -4.727425798773765564e-02 5.879058688879013062e-02 -3.515173196792602539e-01 -1.268906891345977783e-01 1.538753509521484375e-01 2.518094778060913086e-01 4.067356511950492859e-02 -1.577520966529846191e-01 1.656599640846252441e-01 -4.107393324375152588e-01 1.703169047832489014e-01 -3.330318033695220947e-01 -2.096875756978988647e-01 -2.999412119388580322e-01 1.843473613262176514e-01 -1.679323315620422363e-01 1.353208422660827637e-01
3.128915727138519287e-01 3.006207644939422607e-01 -2.425984591245651245e-01 1.045130193233489990e-01 -4.816003739833831787e-01 -7.309569120407104492e-01 -7.043912261724472046e-02 7.125273942947387695e-01 3.554854989051818848e-01 8.118000626564025879e-01 -5.231427550315856934e-01 -2.395479194819927216e-02 -5.037990808486938477e-01 -1.732268184423446655e-01 3.952356278896331787e-01 -3.212666213512420654e-01 -3.011551499366760254e-01 1.012064591050148010e-01 2.163264900445938110e-01 -1.089324131608009338e-01
5.904712080955505371e-01 2.387248873710632324e-01 -4.341708719730377197e-01 2.957321107387542725e-01 1.854466646909713745e-01 -6.321533918380737305e-01 2.140300273895263672e-01 8.685198426246643066e-01 3.954651057720184326e-01 4.982781410217285156e-01 -6.329999770969152451e-03 1.900966465473175049e-01 -2.014580518007278442e-01 3.157865628600120544e-02 -3.690376579761505127e-01 -2.161609828472137451e-01 -1.003898829221725464e-01 2.417427748441696167e-01 -8.808378130197525024e-02 -4.006853401660919189e-01
2.937979698181152344e-01 3.110169172286987305e-01 -3.006968796253204346e-01 1.393932010978460312e-02 -4.177033305168151855e-01 4.919047653675079346e-02 3.039584457874298096e-01 3.445263803005218506e-01 -1.770869791507720947e-01 6.277514100074768066e-01 1.424838304519653320e-01 -2.543245851993560791e-01 6.604310274124145508e-01 -3.852890431880950928e-01 -1.739741563796997070e-01 8.843192458152770996e-02 9.382683038711547852e-02 1.971590220928192139e-01 -1.342825144529342651e-01 -1.934263259172439575e-01
2.846256494522094727e-01 3.907734528183937073e-02 -2.135633826255798340e-01 1.632725447416305542e-01 1.639220118522644043e-01 -3.403799533843994141e-01 1.058897525072097778e-01 -7.654898613691329956e-02 4.065142273902893066e-01 -1.819121837615966797e-01 -3.689746605232357979e-03 -1.892451941967010498e-01 2.991282008588314056e-02 -7.823694497346878052e-02 -4.746202379465103149e-02 9.605263918638229370e-02 -5.317028760910034180e-01 5.656736344099044800e-02 1.495661139488220215e-01 3.576143383979797363e-01
-6.156851723790168762e-02 8.020825684070587158e-02 -6.008093804121017456e-02 6.096410378813743591e-02 -1.250248495489358902e-02 3.439026772975921631e-01 -5.623566685244441032e-04 8.024453371763229370e-02 2.125478088855743408e-01 2.410948872566223145e-01 -5.409651622176170349e-02 -4.898021370172500610e-02 -1.045546233654022217e-01 8.650992065668106079e-02 1.861225441098213196e-02 -1.715971082448959351e-01 -4.845395311713218689e-02 2.282775938510894775e-01 -3.821450844407081604e-02 3.408291935920715332e-01
2.758157253265380859e-01 1.446427553892135620e-01 -4.889983683824539185e-02 1.071933358907699585e-01 1.060657501220703125e-01 -1.913285255432128906e-01 -1.983744502067565918e-01 6.770903617143630981e-02 2.072572410106658936e-01 -1.554645970463752747e-02 -5.161405075341463089e-03 1.370005905628204346e-01 -1.274573504924774170e-01 8.463618159294128418e-02 1.904896199703216553e-01 2.931501865386962891e-01 1.178244128823280334e-01 2.321324199438095093e-01 -8.899447321891784668e-02 -2.914436906576156616e-02
-1.126160845160484314e-02 -2.718990147113800049e-01 9.820171445608139038e-02 1.514289900660514832e-02 4.953512549400329590e-02 -1.643124520778656006e-01 2.622535526752471924e-01 1.260420382022857666e-01 1.127326302230358124e-02 -1.911721937358379364e-02 -8.727973699569702148e-01 1.241141483187675476e-01 -8.126730471849441528e-02 -1.975788548588752747e-02 -1.961743384599685669e-01 3.240155577659606934e-01 -1.823955923318862915e-01 -1.379590630531311035e-01 -3.801413476467132568e-01 -1.171812117099761963e-01
-1.010837703943252563e-01 -4.689395800232887268e-02 8.537895977497100830e-02 -6.188798323273658752e-02 -1.057465001940727234e-01 -9.258489310741424561e-02 -1.264965832233428955e-01 -1.992403715848922729e-01 7.190080732107162476e-02 -1.700889021158218384e-01 5.415002349764108658e-03 1.827974170446395874e-01 -7.946100085973739624e-02 -6.263821572065353394e-02 1.955282241106033325e-01 -2.106652408838272095e-01 1.316982358694076538e-01 -6.168597936630249023e-02 -9.697285294532775879e-02 -2.670099437236785889e-01
-1.709014773368835449e-01 -2.821615338325500488e-01 8.543007820844650269e-02 -2.832572534680366516e-02 3.204684853553771973e-01 -1.467147916555404663e-01 1.193217709660530090e-01 -1.354402452707290649e-01 7.374811917543411255e-02 -2.003618478775024414e-01 2.189210355281829834e-01 1.514080315828323364e-01 -1.848527938127517700e-01 5.133271589875221252e-02 2.350397408008575439e-01 -3.684163689613342285e-01 2.981448546051979065e-02 4.061716198921203613e-01 -1.060440316796302795e-01 3.687477111816406250e-02
-1.419835686683654785e-01 -1.039008498191833496e-01 1.887632459402084351e-01 -9.534253180027008057e-02 8.338992297649383545e-02 1.602947711944580078e-01 -4.885412007570266724e-02 -2.569865286350250244e-01 1.176370456814765930e-01 -1.284043639898300171e-01 -1.828898489475250244e-02 3.136408925056457520e-01 -1.031049340963363647e-02 -3.917844593524932861e-02 9.107493609189987183e-02 -2.837929129600524902e-01 -3.388088345527648926e-01 3.086734712123870850e-01 -3.385750651359558105e-01 -5.160806328058242798e-02
1.499631702899932861e-01 -1.232658401131629944e-01 2.496838271617889404e-01 -5.030990019440650940e-02 1.627374589443206787e-01 -6.592965126037597656e-02 9.088516980409622192e-02 1.611442863941192627e-01 3.504294157028198242e-01 1.050642598420381546e-02 -1.996624283492565155e-02 -3.100702352821826935e-02 9.061526507139205933e-02 -1.575876027345657349e-01 1.065238751471042633e-02 1.020750030875205994e-01 -5.708255618810653687e-02 3.901264369487762451e-01 -1.287409756332635880e-02 -9.294090420007705688e-02
9.689801186323165894e-02 2.027769833803176880e-01 -2.123995870351791382e-01 8.985350281000137329e-02 5.572162941098213196e-02 -1.993834674358367920e-01 7.114871591329574585e-02 1.273711025714874268e-01 2.252469807863235474e-01 9.979547560214996338e-02 1.296057403087615967e-01 1.995783858001232147e-02 3.859265744686126709e-01 5.264312028884887695e-02 -7.536106556653976440e-02 2.520731389522552490e-01 -3.389801979064941406e-01 -1.124751046299934387e-01 3.577132821083068848e-01 1.223546788096427917e-01
1.127010211348533630e-01 2.391827255487442017e-01 2.759698927402496338e-01 -2.005043476819992065e-01 -6.586851179599761963e-02 1.367209106683731079e-01 2.993834316730499268e-01 -7.230703532695770264e-02 4.945474117994308472e-02 1.607029438018798828e-01 -1.101657971739768982e-01 -4.380618408322334290e-02 -1.924581527709960938e-01 7.676232140511274338e-03 3.797298967838287354e-01 7.316593825817108154e-02 -1.039771828800439835e-02 -4.956814646720886230e-02 -1.726274341344833374e-01 1.626179069280624390e-01
2.857808209955692291e-02 4.500594735145568848e-02 -3.020790591835975647e-02 -1.895561665296554565e-01 -2.221017439296701923e-06 -7.559580355882644653e-02 1.916295140981674194e-01 3.245829790830612183e-02 3.619596362113952637e-01 -6.704085320234298706e-02 1.559305936098098755e-01 -8.661602437496185303e-02 -7.044621556997299194e-02 -3.231888636946678162e-02 1.322605609893798828e-01 -1.255208700895309448e-01 6.691633909940719604e-02 -2.454704232513904572e-02 -5.075285583734512329e-02 -1.318094283342361450e-01
-1.729607954621315002e-02 -6.875031441450119019e-02 -7.668080180883407593e-02 -3.452887013554573059e-02 3.520340919494628906e-01 1.016879156231880188e-01 1.275125741958618164e-01 -2.664866745471954346e-01 -4.433511290699243546e-03 -2.964653670787811279e-01 -1.003933921456336975e-01 2.737668156623840332e-01 -1.117525324225425720e-01 -3.026483952999114990e-02 -7.404243201017379761e-02 -1.673373393714427948e-02 -3.006064295768737793e-01 9.265231341123580933e-02 -1.003111079335212708e-01 -2.763839364051818848e-01
6.016633659601211548e-02 -4.936826229095458984e-02 1.175416558980941772e-01 -5.611328780651092529e-02 -3.221104145050048828e-01 2.893025055527687073e-03 -6.303857266902923584e-02 -1.113749146461486816e-01 9.075979143381118774e-02 -3.025712370872497559e-01 -1.798860146664083004e-03 4.659709986299276352e-03 -3.745527938008308411e-02 1.488831359893083572e-03 1.040631160140037537e-02 -6.710372865200042725e-03 -2.030369341373443604e-01 2.381759136915206909e-01 -9.526362270116806030e-02 1.377198547124862671e-01
-1.068778485059738159e-01 -4.208406805992126465e-02 -2.906436659395694733e-02 6.289522862061858177e-04 8.882401138544082642e-02 4.004915803670883179e-02 5.133949592709541321e-02 5.215787142515182495e-02 8.884640783071517944e-02 -7.719293236732482910e-03 -3.473312035202980042e-02 3.414038335904479027e-03 7.695999741554260254e-02 8.014924526214599609e-01 -1.574579998850822449e-02 -7.911550812423229218e-03 -1.552262455224990845e-01 4.457671195268630981e-02 -5.742486566305160522e-02 3.100359626114368439e-02
2.061103731393814087e-01 5.911749601364135742e-01 -4.239677190780639648e-01 1.986178457736968994e-01 -1.848209649324417114e-01 -1.637073904275894165e-01 1.819882988929748535e-01 -2.054607421159744263e-01 1.779404878616333008e-01 2.204823121428489685e-02 -1.751089394092559814e-01 1.916275620460510254e-01 -3.309234511107206345e-03 7.003469765186309814e-02 2.422629855573177338e-03 -6.023992598056793213e-02 2.567998878657817841e-02 -1.003491505980491638e-01 -5.275038629770278931e-02 2.373892664909362793e-01
-7.822138816118240356e-02 2.757219374179840088e-01 -1.413278281688690186e-01 4.719493538141250610e-02 -3.221238255500793457e-01 -7.613520324230194092e-02 2.109760940074920654e-01 1.356162577867507935e-01 1.262543499469757080e-01 -1.564255505800247192e-01 -1.177050694823265076e-01 -1.992779523134231567e-01 -1.559439152479171753e-01 -2.399097383022308350e-02 1.140385307371616364e-02 8.702760189771652222e-02 1.549442708492279053e-01 -5.112300515174865723e-01 3.711304068565368652e-01 -8.443303406238555908e-02
9.746663272380828857e-02 1.884989142417907715e-01 -6.212348118424415588e-02 -2.015473246574401855e-01 -2.538137733936309814e-01 -2.677452266216278076e-01 4.150647521018981934e-01 -7.458499819040298462e-02 -8.649520576000213623e-02 1.493923217058181763e-01 -1.493883971124887466e-02 1.139265596866607666e-01 -8.933106064796447754e-02 -7.436946779489517212e-02 2.540254592895507812e-01 2.417908459901809692e-01 5.413387343287467957e-02 1.405388712882995605e-01 2.171402275562286377e-01 -6.266763806343078613e-02
-2.602920532226562500e-01 1.105736196041107178e-01 6.168846972286701202e-03 3.665571659803390503e-02 -8.986254036426544189e-02 1.510046720504760742e-01 -3.830454051494598389e-01 -9.022542089223861694e-02 1.183879300951957703e-01 -8.340311050415039062e-02 -4.154613614082336426e-02 -3.434050083160400391e-02 -1.473956555128097534e-01 -2.226823009550571442e-02 2.712355554103851318e-02 -2.634549327194690704e-02 1.008353829383850098e-01 5.983255803585052490e-02 2.382558733224868774e-01 9.765751659870147705e-02
1.994744408875703812e-03 -2.248481661081314087e-02 -9.656112641096115112e-02 -1.875216141343116760e-02 8.743724972009658813e-02 1.184004023671150208e-01 1.805468648672103882e-01 2.859838008880615234e-01 3.333513066172599792e-02 -7.596621662378311157e-02 -1.036321520805358887e-01 -1.914652287960052490e-01 1.060333028435707092e-01 -5.225308239459991455e-02 -8.783486485481262207e-02 -2.274671643972396851e-01 -2.303894907236099243e-01 5.358662456274032593e-02 1.036920025944709778e-01 2.660073898732662201e-02
-1.752159595489501953e-01 -3.679173812270164490e-02 -1.115002483129501343e-01 7.058180868625640869e-02 -2.018182128667831421e-01 1.670767366886138916e-02 7.753052283078432083e-03 1.217321157455444336e-01 1.584564521908760071e-02 -1.033017486333847046e-01 -8.777245879173278809e-03 2.563447356224060059e-01 -4.924451708793640137e-01 -4.785121977329254150e-02 -1.438086330890655518e-01 -1.117007881402969360e-01 1.277965158224105835e-01 -2.684949338436126709e-01 -3.247297927737236023e-02 7.136174291372299194e-02
4.557969272136688232e-01 3.366909325122833252e-01 -3.799835145473480225e-01 -8.871676921844482422e-01 -8.245874941349029541e-02 2.871470339596271515e-02 2.881700694561004639e-01 4.481941461563110352e-01 4.750530049204826355e-02 4.903603494167327881e-01 2.139619588851928711e-01 8.774846792221069336e-02 -4.016496613621711731e-02 2.315775305032730103e-01 -1.258157253265380859e+00 -1.292220830917358398e+00 -1.643616080284118652e+00 1.232800558209419250e-01 1.399453282356262207e+00 1.722394526004791260e-01
2.484439611434936523e-01 -4.331016540527343750e-01 2.290725409984588623e-01 -5.557301640510559082e-01 -4.349876940250396729e-01 -4.500018060207366943e-01 -2.083406746387481689e-01 2.867714166641235352e-01 7.312939167022705078e-01 7.245221734046936035e-01 -8.262001872062683105e-01 2.092372179031372070e-01 3.187201544642448425e-02 -1.145019382238388062e-01 -5.009781718254089355e-01 6.957881897687911987e-02 -5.294097214937210083e-02 -2.081635445356369019e-01 9.090252518653869629e-01 1.077726557850837708e-01
8.625488877296447754e-01 -4.312688112258911133e-01 -1.051494665443897247e-02 -6.136236712336540222e-02 -3.431376516819000244e-01 -9.909828305244445801e-01 2.962882257997989655e-02 4.219315648078918457e-01 3.698953092098236084e-01 2.627319097518920898e+00 5.096480622887611389e-02 -6.354020833969116211e-01 8.863440155982971191e-02 4.964764788746833801e-02 -1.118193626403808594e+00 1.820324659347534180e-01 -1.991540640592575073e-01 -2.339365780353546143e-01 4.431886672973632812e-01 -1.206131353974342346e-01
-4.108569622039794922e-01 -5.682592988014221191e-01 -4.743875935673713684e-02 -3.451352417469024658e-01 -1.403679605573415756e-02 -4.259415268898010254e-01 -6.991703808307647705e-02 6.837775558233261108e-02 -4.269217327237129211e-02 7.090897113084793091e-02 3.528200685977935791e-01 -5.557163804769515991e-02 8.765408769249916077e-03 4.740858823060989380e-02 -1.512697525322437286e-02 1.164027675986289978e-01 2.329060584306716919e-01 5.786749720573425293e-02 -7.575927972793579102e-01 -1.143918037414550781e-01
3.113775253295898438e-01 3.309469223022460938e-01 -1.396109610795974731e-01 -3.795438706874847412e-01 -4.301666840910911560e-02 -6.240558624267578125e-01 -9.232551604509353638e-02 -8.943010121583938599e-02 2.326562106609344482e-01 1.365460604429244995e-01 -1.121114417910575867e-01 -1.662296205759048462e-01 -1.645738035440444946e-01 -1.711102277040481567e-01 -2.433422505855560303e-01 1.629609018564224243e-01 -2.503717839717864990e-01 -4.809133708477020264e-02 1.486866772174835205e-01 -1.014340016990900040e-02
-1.297627110034227371e-02 1.203054338693618774e-01 4.706180393695831299e-01 7.494751363992691040e-02 -1.367387026548385620e-01 -2.796784415841102600e-02 -1.960467249155044556e-01 2.352768331766128540e-01 3.058078289031982422e-01 -1.278353855013847351e-02 -1.971868798136711121e-02 1.330036371946334839e-01 3.844533562660217285e-01 -1.623502671718597412e-01 -3.285544216632843018e-01 4.197373092174530029e-01 -8.086167275905609131e-02 3.396120965480804443e-01 5.047799944877624512e-01 2.099545598030090332e-01
3.019295334815979004e-01 -9.300987422466278076e-02 -1.277896404266357422e+00 1.034206077456474304e-01 5.460001528263092041e-02 -4.600079953670501709e-01 4.087177291512489319e-02 3.212741911411285400e-01 3.812313079833984375e-01 3.871251642704010010e-01 6.406450867652893066e-01 -1.749687939882278442e-01 -1.744422465562820435e-01 8.514793962240219116e-02 -7.665687203407287598e-01 8.932214230298995972e-02 -3.184154927730560303e-01 -2.075119018554687500e-01 -8.555206470191478729e-03 6.117686163634061813e-03
2.751206234097480774e-02 4.344034940004348755e-02 -1.014935150742530823e-01 -9.391587972640991211e-02 7.914157211780548096e-02 6.791774928569793701e-02 -8.166952431201934814e-02 1.599561572074890137e-01 2.763987779617309570e-01 5.012508109211921692e-02 1.322585195302963257e-01 -1.626090109348297119e-01 5.409834557212889194e-04 1.231783479452133179e-01 -2.584360837936401367e-01 -1.399015486240386963e-01 -7.389637827873229980e-02 2.128247320652008057e-01 1.657421886920928955e-02 -1.292040795087814331e-01
-6.885540485382080078e-01 -2.995561957359313965e-01 -2.806693613529205322e-01 2.876957952976226807e-01 2.586840987205505371e-01 -1.463329643011093140e-01 -4.584043920040130615e-01 1.913325339555740356e-01 -1.246565431356430054e-01 -8.086600154638290405e-02 2.185837775468826294e-01 -4.051016271114349365e-01 1.639107018709182739e-01 5.985016003251075745e-02 -2.870188057422637939e-01 1.249904278665781021e-02 1.637991219758987427e-01 -5.771395936608314514e-02 -1.460476517677307129e-01 3.846071660518646240e-02
-1.271197944879531860e-01 4.364910125732421875e-01 -1.026752963662147522e-01 1.702194213867187500e-01 -1.168313249945640564e-01 -1.474130153656005859e-01 -4.117541760206222534e-02 1.061675399541854858e-01 -2.537661194801330566e-01 7.640509307384490967e-02 -3.407451137900352478e-02 -2.292274385690689087e-01 -2.132734954357147217e-01 1.149947166442871094e+00 -4.404821693897247314e-01 -4.725899547338485718e-03 2.860518731176853180e-02 -1.897939667105674744e-02 1.446552872657775879e-01 1.778483241796493530e-01
3.543156385421752930e-02 2.441158294677734375e-01 -3.285623490810394287e-01 -9.437194466590881348e-02 -1.373396068811416626e-01 2.879513800144195557e-01 -2.876181602478027344e-01 -1.739913523197174072e-01 3.517637848854064941e-01 -2.259226590394973755e-01 -1.870359331369400024e-01 2.723219692707061768e-01 -3.116050958633422852e-01 1.780968457460403442e-01 -3.554801270365715027e-02 -1.245205551385879517e-01 -9.883511066436767578e-02 3.918307125568389893e-01 3.076592981815338135e-01 5.976982042193412781e-02
-1.098832115530967712e-01 6.670492887496948242e-02 1.672654449939727783e-01 1.515512075275182724e-02 -2.598188519477844238e-01 7.892281562089920044e-02 -9.223863482475280762e-03 -1.921969950199127197e-01 6.389781367033720016e-03 6.442154198884963989e-02 -6.180479377508163452e-02 3.621491789817810059e-02 -5.876109600067138672e-01 -1.149321123957633972e-01 -2.258831560611724854e-01 2.350806146860122681e-01 4.269697703421115875e-03 3.761105984449386597e-02 3.394182324409484863e-01 -1.729901880025863647e-02
-3.708340600132942200e-02 -5.105739831924438477e-01 -2.864258289337158203e-01 -1.228513717651367188e-01 5.830960869789123535e-01 3.431676304899156094e-04 7.009859085083007812e-01 -3.210323154926300049e-01 2.326919585466384888e-01 2.508118748664855957e-01 2.029418200254440308e-01 5.691679120063781738e-01 1.383764948695898056e-02 -7.230040431022644043e-02 -2.835587365552783012e-03 -1.837730705738067627e-01 -2.956842780113220215e-01 2.974932193756103516e-01 1.016844287514686584e-01 -2.825140058994293213e-01
3.266899287700653076e-01 4.961439222097396851e-02 -2.846596837043762207e-01 2.242835760116577148e-01 3.129126727581024170e-01 2.468183934688568115e-01 4.437930881977081299e-01 -1.039628088474273682e-01 -1.541544348001480103e-01 -3.704648092389106750e-02 4.265878722071647644e-02 -4.719097614288330078e-01 -4.310914501547813416e-02 -3.410986810922622681e-02 -6.919384002685546875e-01 1.652613729238510132e-01 2.011696547269821167e-01 6.704162806272506714e-02 -7.483642548322677612e-02 6.297342479228973389e-02
2.392861992120742798e-01 2.558580338954925537e-01 1.212892532348632812e-01 3.183668851852416992e-01 -5.073218047618865967e-02 -2.414338141679763794e-01 -3.174625039100646973e-01 1.888032257556915283e-01 2.147050797939300537e-01 -1.124881878495216370e-01 -2.386983186006546021e-01 -2.333036363124847412e-01 8.824355155229568481e-02 7.929239422082901001e-02 -6.497876048088073730e-01 2.150964140892028809e-01 -5.743859410285949707e-01 3.658352196216583252e-01 -1.577653735876083374e-01 -2.834316492080688477e-01
5.976169183850288391e-02 6.135359406471252441e-01 2.398536056280136108e-01 1.230575516819953918e-02 2.058959603309631348e-01 -1.041024252772331238e-01 -8.239952474832534790e-02 4.061880335211753845e-02 3.570360839366912842e-01 -1.894408166408538818e-01 3.124688751995563507e-03 -4.065190255641937256e-02 -2.011936306953430176e-01 2.804204635322093964e-02 3.233349323272705078e-02 -2.645723819732666016e-01 8.417546749114990234e-02 4.792371392250061035e-01 2.015697956085205078e-01 -2.286977469921112061e-01
-1.241410966031253338e-03 8.835886418819427490e-02 -5.422866344451904297e-01 -1.355194300413131714e-01 9.001728147268295288e-03 -1.918863207101821899e-01 -1.639023572206497192e-01 -1.193070411682128906e-01 -5.598104372620582581e-02 -4.115757346153259277e-02 6.024881079792976379e-02 -6.486304849386215210e-02 -2.316643744707107544e-01 5.033549070358276367e-01 -2.363640815019607544e-01 5.106748640537261963e-02 -1.081161275506019592e-01 3.640110194683074951e-01 -4.216377139091491699e-01 -3.179260194301605225e-01
3.884038701653480530e-02 -2.798311039805412292e-02 -3.788135349750518799e-01 -9.583786875009536743e-02 -1.077194958925247192e-01 1.788963191211223602e-02 1.580193638801574707e-01 2.378401011228561401e-01 -1.169874146580696106e-02 5.189881920814514160e-01 -2.812455296516418457e-01 1.470437198877334595e-01 -5.918142944574356079e-02 2.369399666786193848e-01 2.066792845726013184e-01 -1.016602665185928345e-01 -7.153910398483276367e-02 1.672108620405197144e-01 -4.556733071804046631e-01 1.021519582718610764e-02
3.992253839969635010e-01 -1.666803479194641113e+00 -3.088243603706359863e-01 5.425648689270019531e-01 3.116475045680999756e-01 -8.178240656852722168e-01 2.756428420543670654e-01 2.246569693088531494e-01 4.249801039695739746e-01 3.820451796054840088e-01 -3.491337299346923828e-01 8.597562313079833984e-01 -1.116212606430053711e-01 -6.706055998802185059e-01 -8.215934038162231445e-01 1.086766123771667480e-01 1.365739852190017700e-01 -4.905431568622589111e-01 -6.654691696166992188e-01 2.392692565917968750e-01
1.009308099746704102e+00 9.499503374099731445e-01 2.959880530834197998e-01 4.618339240550994873e-01 -4.087246060371398926e-01 -1.121300756931304932e-01 -5.893175601959228516e-01 3.107404410839080811e-01 5.948711633682250977e-01 5.752266645431518555e-01 -6.459655612707138062e-02 -6.855983138084411621e-01 5.943645238876342773e-01 -6.321409344673156738e-01 1.650768518447875977e-01 1.843069791793823242e-01 -1.832858175039291382e-01 6.887135505676269531e-01 -1.136778473854064941e+00 5.343879573047161102e-03
