1.687701046466827393e-01 -2.942143380641937256e-01 1.924277245998382568e-01 -3.089665770530700684e-01 -1.092215552926063538e-01 -1.411999110132455826e-02 3.155155479907989502e-01 -8.221379667520523071e-02 1.029782928526401520e-02 2.535627186298370361e-01 1.848508864641189575e-01 -2.067029774188995361e-01 1.398285180330276489e-01 5.247705578804016113e-01 -3.503720462322235107e-01 3.443356454372406006e-01 -5.421033874154090881e-02 3.257496654987335205e-01 -1.232187449932098389e-02 4.403266012668609619e-01
-3.180852234363555908e-01 5.265081673860549927e-02 2.363070994615554810e-01 2.910528481006622314e-01 -2.657535076141357422e-01 -9.525690227746963501e-02 -2.219148576259613037e-01 2.272372245788574219e-01 -1.525116711854934692e-01 -3.386353701353073120e-02 -1.201983690261840820e-01 -3.893282115459442139e-01 5.242371559143066406e-01 -4.310426861047744751e-02 5.074271932244300842e-02 6.992706060409545898e-01 3.558812141418457031e-01 1.538709104061126709e-01 -1.602549999952316284e-01 1.238240599632263184e-01
