1.215131953358650208e-01 -1.444274038076400757e-01 -1.436486095190048218e-01 -1.688001006841659546e-01 1.868765056133270264e-01 2.255652695894241333e-01 9.869066625833511353e-02 -1.044677197933197021e-01 -2.521560154855251312e-02 2.557143867015838623e-01 8.307918161153793335e-02 3.226839751005172729e-02 -1.096740588545799255e-01 -2.017758553847670555e-03 1.162251159548759460e-01 7.235594838857650757e-02 -5.404440760612487793e-01 7.131964433938264847e-03 2.753887176513671875e-01 -1.615231037139892578e-01
1.537334024906158447e-01 -4.935097321867942810e-02 1.002896577119827271e-01 6.582013517618179321e-02 2.087177187204360962e-01 -1.467813551425933838e-01 2.713108360767364502e-01 -1.470522135496139526e-01 1.138735562562942505e-01 -2.155813854187726974e-03 -2.881627678871154785e-01 -1.594466567039489746e-01 -8.161500096321105957e-02 2.671754658222198486e-01 -1.101752091199159622e-02 1.096804067492485046e-01 2.733587920665740967e-01 -9.490920603275299072e-02 1.414229124784469604e-01 -3.441080749034881592e-01
3.245806992053985596e-01 -2.043674290180206299e-01 1.209613606333732605e-01 4.911792278289794922e-02 1.069153696298599243e-01 9.849088639020919800e-02 3.099349737167358398e-01 2.097165733575820923e-01 -2.107993699610233307e-02 -1.820037066936492920e-01 -1.278838813304901123e-01 -1.743429712951183319e-02 -7.363671064376831055e-02 9.690809994935989380e-02 4.077353775501251221e-01 2.592866122722625732e-01 -8.545290678739547729e-02 -3.354870975017547607e-01 4.709206894040107727e-02 2.486162930727005005e-01
5.445000529289245605e-02 6.506852805614471436e-02 2.407622337341308594e-01 -9.282006323337554932e-02 -3.141583502292633057e-01 1.069343015551567078e-01 1.103178858757019043e-01 1.833111494779586792e-01 -1.895274519920349121e-01 -9.120217710733413696e-02 -9.255854785442352295e-02 -8.709635585546493530e-02 -6.426353752613067627e-02 7.470357418060302734e-02 1.105833500623703003e-01 -1.999476253986358643e-01 5.238279700279235840e-02 1.960662007331848145e-01 -1.852726191282272339e-01 -9.064198285341262817e-02
9.598342329263687134e-02 1.690779626369476318e-01 -1.768134832382202148e-01 4.360998049378395081e-02 7.519634906202554703e-03 -1.398876309394836426e-01 -1.732418313622474670e-02 1.662733405828475952e-01 -6.218720227479934692e-02 5.173824727535247803e-02 -1.439756993204355240e-02 -3.311154991388320923e-02 7.191107422113418579e-02 -7.288868073374032974e-03 3.340678513050079346e-01 3.321387469768524170e-01 -1.544847041368484497e-01 -1.019577607512474060e-01 -7.122699171304702759e-02 1.755931079387664795e-01
1.426912248134613037e-01 3.255847990512847900e-01 5.091815441846847534e-02 4.422294348478317261e-02 -2.600214779376983643e-01 -1.289513856172561646e-01 3.598985821008682251e-02 -3.258985579013824463e-01 1.496027112007141113e-01 -1.450861096382141113e-01 2.146363258361816406e-01 -1.145317405462265015e-02 -1.554515808820724487e-01 -6.759563088417053223e-02 -1.011817902326583862e-01 1.957708150148391724e-01 1.010446697473526001e-01 -2.207710295915603638e-01 -1.606208980083465576e-01 -1.342188417911529541e-01
4.250164926052093506e-01 -3.515689820051193237e-02 -9.115823358297348022e-02 -2.071491777896881104e-01 4.177040457725524902e-01 -5.132484808564186096e-02 8.415685594081878662e-02 -3.953904658555984497e-02 -1.175142601132392883e-01 -1.059027463197708130e-01 7.501082122325897217e-02 -8.990754187107086182e-02 3.627827391028404236e-02 1.133728399872779846e-01 -1.283875554800033569e-01 -1.572222411632537842e-01 -1.572727970778942108e-02 -3.363538980484008789e-01 2.082443833351135254e-01 -1.072006952017545700e-02
8.060279488563537598e-02 -2.287032082676887512e-02 -1.832025200128555298e-01 -7.769262790679931641e-02 -3.278850317001342773e-01 -6.216258625499904156e-04 7.593246698379516602e-01 9.289801716804504395e-01 -4.105122387409210205e-02 2.381078153848648071e-01 1.605445593595504761e-01 -2.687113825231790543e-03 -1.216680109500885010e-01 5.474057197570800781e-01 2.048706263303756714e-01 1.028944402933120728e-01 -3.969787806272506714e-02 3.830719888210296631e-01 -2.035578787326812744e-01 2.115903943777084351e-01
-3.224239498376846313e-02 4.251861274242401123e-01 1.721510291099548340e-01 -2.652761936187744141e-01 -3.080900311470031738e-01 1.028715729713439941e+00 -5.198785066604614258e-01 3.335866034030914307e-01 1.186674356460571289e+00 -1.537659913301467896e-01 -2.316222637891769409e-01 -2.167855948209762573e-01 3.875426948070526123e-01 -1.539074331521987915e-01 -7.828473448753356934e-01 -6.479527056217193604e-02 6.734162569046020508e-02 2.207078784704208374e-01 4.727138951420783997e-02 2.371820956468582153e-01
2.221169508993625641e-02 -1.227658018469810486e-01 -4.296903312206268311e-02 -6.378248333930969238e-03 -1.582505702972412109e-01 1.226484924554824829e-01 2.581106722354888916e-01 -1.456537604331970215e+00 7.415517419576644897e-02 -2.387922704219818115e-01 -4.337820038199424744e-02 -3.579224348068237305e-01 5.786565318703651428e-02 3.947597444057464600e-01 1.471005529165267944e-01 2.108579725027084351e-01 -3.105807602405548096e-01 3.427104353904724121e-01 -2.514987885951995850e-01 4.964457154273986816e-01
-1.017738729715347290e-01 1.678741127252578735e-01 -2.237581275403499603e-02 -6.084239482879638672e-02 -5.249993875622749329e-03 -2.810705602169036865e-01 1.938824951648712158e-01 -9.609926939010620117e-01 -2.483226358890533447e-01 -2.878573536872863770e-01 -2.784127593040466309e-01 1.165776923298835754e-01 -2.112519554793834686e-02 8.326184749603271484e-02 7.407677918672561646e-02 -2.273723930120468140e-01 1.514567732810974121e-01 2.483074218034744263e-01 -4.381034523248672485e-02 3.831768631935119629e-01
1.551004052162170410e-01 1.982315927743911743e-01 -1.195362061262130737e-01 1.518937479704618454e-02 2.292668670415878296e-01 2.276228182017803192e-02 -2.336154691874980927e-02 -1.515016853809356689e-01 8.939891308546066284e-02 9.353007376194000244e-02 6.534773111343383789e-02 9.443386644124984741e-02 1.080634444952011108e-01 -1.826930791139602661e-01 6.413033232092857361e-03 1.645546108484268188e-01 1.942898184061050415e-01 -2.453936487436294556e-01 -1.814149320125579834e-01 3.433272615075111389e-02
2.858752012252807617e-01 1.638067960739135742e-01 -7.942057400941848755e-02 3.700315952301025391e-02 -1.268012821674346924e-01 -1.144176907837390900e-02 -1.360915154218673706e-01 -9.344114363193511963e-02 -3.988767974078655243e-03 7.161244004964828491e-02 -2.164639681577682495e-01 -1.123417764902114868e-01 1.217856779694557190e-01 1.214350294321775436e-02 5.217844843864440918e-01 5.655694380402565002e-02 5.222010612487792969e-02 2.740173600614070892e-02 -2.017208933830261230e-01 5.452296510338783264e-02
9.800259768962860107e-02 -7.969037294387817383e-01 -5.156072974205017090e-01 -3.392499685287475586e-01 -1.880060285329818726e-01 -2.542474679648876190e-02 -3.738592863082885742e-01 1.564645767211914062e-01 -1.063942834734916687e-01 1.968522369861602783e-01 1.083460301160812378e-01 2.982663214206695557e-01 -1.838915944099426270e-01 1.435478627681732178e-01 -1.539141684770584106e-01 1.859994530677795410e-01 -1.919150650501251221e-01 1.703827828168869019e-01 3.737048804759979248e-01 -1.385173480957746506e-02
2.347978949546813965e-01 5.010492727160453796e-02 1.871363073587417603e-01 6.650190949440002441e-01 -3.838638663291931152e-01 3.832666277885437012e-01 -3.012314736843109131e-01 -1.850598305463790894e-01 -1.239036172628402710e-01 -1.071520149707794189e-01 -1.402717083692550659e-01 6.082015484571456909e-02 2.234493754804134369e-02 -4.187760129570960999e-02 2.000935375690460205e-01 1.746410727500915527e-01 2.412010282278060913e-01 1.094420179724693298e-01 -1.076814010739326477e-01 -5.105477757751941681e-03
5.185872912406921387e-01 1.690092496573925018e-02 5.691952630877494812e-02 -1.065155267715454102e-01 1.211608275771141052e-01 2.283532321453094482e-01 4.162401705980300903e-02 -6.039822101593017578e-02 -2.927621901035308838e-01 -3.491954877972602844e-02 1.239086035639047623e-02 2.326710075139999390e-01 -3.210118114948272705e-01 3.432600200176239014e-01 4.070298001170158386e-02 1.988486200571060181e-01 -2.531880736351013184e-01 -2.100142687559127808e-01 5.850855633616447449e-02 -2.320686876773834229e-01
-6.926589459180831909e-02 -1.755929142236709595e-01 1.074685901403427124e-01 -1.622964888811111450e-01 -2.465081512928009033e-01 -2.993820607662200928e-01 3.646168708801269531e-01 -1.156306713819503784e-01 -1.219939216971397400e-01 -1.242316048592329025e-02 2.129044085741043091e-01 1.262998729944229126e-01 -1.219691261649131775e-01 -1.469383388757705688e-01 8.221930265426635742e-02 6.101782321929931641e-01 4.012649878859519958e-02 2.684337086975574493e-02 -2.702408097684383392e-02 5.463989078998565674e-02
-2.393555454909801483e-02 -3.214039802551269531e-01 -1.139629259705543518e-01 -1.120170503854751587e-01 -1.481201350688934326e-01 -2.404421120882034302e-01 1.556316465139389038e-01 1.255027502775192261e-01 -2.015928328037261963e-01 -1.109832152724266052e-01 2.491647750139236450e-01 -1.588815599679946899e-01 -3.998899087309837341e-02 -3.042974174022674561e-01 -3.078767657279968262e-01 8.039331436157226562e-02 -2.344107627868652344e-02 1.297342479228973389e-01 2.333823032677173615e-02 2.002210915088653564e-01
-2.956065535545349121e-01 -8.461561053991317749e-02 3.321324884891510010e-01 8.705538511276245117e-02 -1.904370635747909546e-01 1.236108914017677307e-01 1.990337520837783813e-01 1.587339341640472412e-01 -1.350104659795761108e-01 1.202992573380470276e-01 2.010924816131591797e-01 6.386515498161315918e-02 6.184335425496101379e-02 -5.193338543176651001e-02 5.664274469017982483e-02 3.542242348194122314e-01 -2.830664254724979401e-02 -6.795541942119598389e-02 -6.457152962684631348e-02 -1.643975973129272461e-01
-9.578596800565719604e-02 -4.221550822257995605e-01 2.593152523040771484e-01 1.115058138966560364e-01 1.061939299106597900e-01 9.869883954524993896e-02 -1.457291096448898315e-01 3.318036347627639771e-02 -8.757002651691436768e-02 -2.594920694828033447e-01 3.004458546638488770e-01 -2.945243716239929199e-01 1.673364080488681793e-02 -1.193192228674888611e-01 -5.068970918655395508e-01 4.619859531521797180e-02 -1.113212034106254578e-01 2.008917555212974548e-02 3.627362474799156189e-02 -7.587850838899612427e-02
1.653857976198196411e-01 -4.944028332829475403e-04 -2.157788723707199097e-01 -6.980604492127895355e-03 3.334118127822875977e-01 8.997716754674911499e-02 1.322383731603622437e-01 -3.250190615653991699e-01 -3.970618173480033875e-02 1.478410363197326660e-01 -3.018045611679553986e-02 3.499689400196075439e-01 -1.986201405525207520e-01 2.492622137069702148e-01 -1.343567222356796265e-01 4.002046883106231689e-01 -5.493077039718627930e-01 -3.837567567825317383e-01 3.391532301902770996e-01 -1.326453238725662231e-01
-5.591631308197975159e-02 2.282885760068893433e-01 2.156391888856887817e-01 9.363412857055664062e-03 1.557320356369018555e-01 -1.832926720380783081e-01 3.513291478157043457e-02 -1.276562809944152832e-01 1.301054656505584717e-01 -1.078894957900047302e-01 -1.933671385049819946e-01 -2.311727851629257202e-01 -4.901137575507164001e-02 2.188309580087661743e-01 1.840316206216812134e-01 8.726779371500015259e-03 -5.118670687079429626e-02 3.944143280386924744e-02 -1.614637523889541626e-01 -1.642715781927108765e-01
1.387720406055450439e-01 3.206717669963836670e-01 -6.242433935403823853e-02 2.692793011665344238e-01 -7.224288582801818848e-02 1.208950579166412354e-01 4.510845243930816650e-02 1.280762404203414917e-01 7.350225001573562622e-02 -4.757037013769149780e-02 5.441378802061080933e-02 -1.791861951351165771e-01 2.558903098106384277e-01 -7.089955359697341919e-02 2.811937630176544189e-01 1.270237118005752563e-01 2.720274329185485840e-01 -2.924717664718627930e-01 -2.273748815059661865e-01 -2.475862950086593628e-02
1.530392020940780640e-01 7.708523422479629517e-02 9.275060147047042847e-02 1.638197749853134155e-01 -2.515802383422851562e-01 4.342718422412872314e-02 -4.599626362323760986e-02 1.144651696085929871e-01 2.416832745075225830e-01 -3.059659004211425781e-01 -6.038855761289596558e-02 -2.202960252761840820e-01 2.630822062492370605e-01 7.120837457478046417e-03 9.370638430118560791e-02 -2.889387309551239014e-01 8.843090385198593140e-02 4.687057435512542725e-02 -3.149793446063995361e-01 -1.968057155609130859e-01
2.559211552143096924e-01 -3.440400213003158569e-02 -1.591135412454605103e-01 1.089538410305976868e-01 1.508270800113677979e-01 -2.828056225553154945e-03 -1.288172006607055664e-01 -8.704790472984313965e-02 -4.521060734987258911e-02 -1.781483739614486694e-01 -1.517503261566162109e-01 2.608437538146972656e-01 1.843083947896957397e-01 -6.076705455780029297e-02 -5.427530501037836075e-03 2.670021653175354004e-01 3.347179619595408440e-03 -2.305056154727935791e-01 -7.426312565803527832e-02 -2.760419845581054688e-01
2.323874384164810181e-01 2.207397967576980591e-01 2.213138490915298462e-01 9.898863732814788818e-02 -1.369812488555908203e-01 -4.886755943298339844e-01 1.601930558681488037e-01 2.781958878040313721e-01 3.436893820762634277e-01 -1.014267443679273129e-03 2.550775557756423950e-02 -2.637347579002380371e-01 -9.078799933195114136e-02 -1.970874369144439697e-01 5.460617691278457642e-02 1.248701065778732300e-01 -1.564190983772277832e-01 -2.446068972349166870e-01 -1.683126091957092285e-01 -3.050978183746337891e-01
3.088116943836212158e-01 -1.506664454936981201e-01 2.496805042028427124e-01 2.289481610059738159e-01 9.558361023664474487e-02 -6.532438844442367554e-02 7.876220345497131348e-02 -1.885906793177127838e-02 1.090253442525863647e-01 -3.248009979724884033e-01 6.663329899311065674e-02 -2.869414389133453369e-01 2.617763876914978027e-01 4.337606951594352722e-03 -2.651537060737609863e-01 1.196778416633605957e-01 -5.866904184222221375e-02 5.409772973507642746e-03 -2.321010828018188477e-01 -4.154990911483764648e-01
2.084600031375885010e-01 4.199006557464599609e-01 1.880382746458053589e-01 -1.048832982778549194e-01 -9.127738326787948608e-02 -8.354227989912033081e-02 -1.055540889501571655e-01 -1.988177299499511719e-01 1.367024481296539307e-01 -7.657825201749801636e-02 -3.970724046230316162e-01 1.466381996870040894e-01 5.807855352759361267e-02 4.372521042823791504e-01 -2.158384472131729126e-01 1.252416074275970459e-01 1.945816278457641602e-01 -7.170355319976806641e-02 -6.990671902894973755e-02 1.812547147274017334e-01
-3.549895482137799263e-04 2.170441150665283203e-01 4.358369484543800354e-02 1.011843830347061157e-01 -3.905596733093261719e-01 1.163270354270935059e+00 -3.706314563751220703e-01 4.140297174453735352e-01 5.567975640296936035e-01 -3.087265193462371826e-01 -2.114607244729995728e-01 -2.627407014369964600e-01 4.133497178554534912e-01 1.664551347494125366e-01 -8.457754254341125488e-01 4.505406320095062256e-01 1.476106941699981689e-01 2.563855946063995361e-01 -2.816182076930999756e-01 4.547625482082366943e-01
-2.612167410552501678e-02 2.178475707769393921e-01 -2.181470841169357300e-01 1.536102592945098877e-01 3.030193150043487549e-01 -6.713168323040008545e-02 -1.212448626756668091e-01 -7.394410967826843262e-01 1.306458860635757446e-01 -2.495499402284622192e-01 -1.500597000122070312e-01 3.583073318004608154e-01 7.957228273153305054e-02 6.359509378671646118e-02 4.584807157516479492e-01 5.113548040390014648e-02 6.837809085845947266e-02 -1.020858883857727051e-01 5.357349663972854614e-02 -4.429097846150398254e-02
1.243633180856704712e-01 1.841931343078613281e-01 -1.253424733877182007e-01 4.622322972863912582e-03 7.559292018413543701e-02 1.106844618916511536e-01 1.950189471244812012e-02 -4.593930542469024658e-01 1.735766679048538208e-01 2.497577220201492310e-01 3.859578073024749756e-01 -3.261156678199768066e-01 -7.770146429538726807e-02 5.919589400291442871e-01 2.619563043117523193e-01 1.000729873776435852e-01 -8.721417933702468872e-02 4.323660433292388916e-01 -1.589014083147048950e-01 -1.767605841159820557e-01
1.190093383193016052e-01 1.527766287326812744e-01 1.875775307416915894e-01 -1.671728491783142090e-02 -8.455707132816314697e-02 3.603040426969528198e-02 3.640983104705810547e-01 3.591067194938659668e-01 -7.488285005092620850e-02 -2.422314882278442383e-01 -1.985011696815490723e-01 -3.415088057518005371e-01 -6.996870040893554688e-02 3.334973752498626709e-01 -6.433109194040298462e-02 3.614662587642669678e-01 -2.327733114361763000e-02 3.871565312147140503e-02 -2.194777876138687134e-01 -2.616558074951171875e-01
3.331868052482604980e-01 2.197604626417160034e-01 1.367845200002193451e-02 2.004187181591987610e-02 -2.282363623380661011e-01 -2.602358162403106689e-01 -5.985013768076896667e-02 -2.289180904626846313e-01 3.036264479160308838e-01 -1.294687986373901367e-01 1.335520893335342407e-01 -1.204547137022018433e-01 1.143817827105522156e-01 2.945158481597900391e-01 1.148036718368530273e-01 3.685687482357025146e-01 1.955056339502334595e-01 1.995950192213058472e-01 -1.295286789536476135e-02 -4.691607877612113953e-02
4.399175345897674561e-01 3.812584877014160156e-01 7.498309761285781860e-02 4.363486170768737793e-01 3.458325564861297607e-01 -1.738109886646270752e-01 1.724646240472793579e-01 -9.826692938804626465e-02 2.073943912982940674e-01 -3.525023162364959717e-01 -1.240873262286186218e-01 -2.658462226390838623e-01 4.896044433116912842e-01 1.658558845520019531e-01 -4.925961196422576904e-01 -2.825540117919445038e-02 2.005845010280609131e-01 1.037907321006059647e-02 -2.221368998289108276e-01 -7.126912474632263184e-01
2.927608489990234375e-01 2.749417722225189209e-01 2.398957908153533936e-01 2.292530834674835205e-01 -2.774774730205535889e-01 1.096390709280967712e-01 3.214310109615325928e-01 -4.099995493888854980e-01 -1.638886518776416779e-02 1.062484160065650940e-01 -4.902896285057067871e-01 -4.458191990852355957e-01 4.582338780164718628e-02 2.605551779270172119e-01 4.142166674137115479e-01 1.426540017127990723e-01 -3.756075724959373474e-02 -1.137954592704772949e-01 -2.118940800428390503e-01 -5.023059900850057602e-03
9.001080989837646484e-01 1.570122838020324707e-01 2.627106606960296631e-01 8.826844394207000732e-02 -7.246811687946319580e-02 1.558958888053894043e-01 2.646167278289794922e-01 -1.902702264487743378e-02 2.213046997785568237e-01 1.896026358008384705e-02 1.237744241952896118e-01 -3.163829743862152100e-01 1.947259157896041870e-01 2.157709002494812012e-01 -1.080458536744117737e-01 2.984597980976104736e-01 -5.297094210982322693e-02 1.764233261346817017e-01 -2.671215832233428955e-01 -4.218685626983642578e-01
9.005722999572753906e-01 3.805186748504638672e-01 2.782984972000122070e-01 3.163116276264190674e-01 3.797581195831298828e-01 3.051481582224369049e-02 3.070626258850097656e-01 2.871327996253967285e-01 3.578196465969085693e-01 -1.179889738559722900e-01 -4.022993892431259155e-02 -1.365521363914012909e-02 -1.150128152221441269e-02 -1.409477181732654572e-02 -2.364646196365356445e-01 -3.795015811920166016e-02 4.905469715595245361e-02 5.783559754490852356e-02 -1.896303594112396240e-01 -2.500145733356475830e-01
8.926777541637420654e-02 1.639384925365447998e-01 -1.721940934658050537e-01 -1.829894185066223145e-01 2.488501220941543579e-01 -7.122468948364257812e-02 1.139646619558334351e-01 6.963025778532028198e-02 1.881109178066253662e-01 -1.854136213660240173e-02 6.192491203546524048e-02 6.927814334630966187e-02 -8.135253936052322388e-02 3.399012982845306396e-01 -2.669958174228668213e-01 -2.628781497478485107e-01 -3.441720008850097656e-01 -3.838653862476348877e-01 -3.048461303114891052e-02 -3.280889391899108887e-01
2.951986193656921387e-01 1.992120444774627686e-01 1.239833235740661621e-01 -9.322090074419975281e-03 -1.452851593494415283e-01 -1.070135459303855896e-02 3.979792892932891846e-01 -4.555758088827133179e-02 2.740490734577178955e-01 -3.740954995155334473e-01 -2.140379846096038818e-01 -7.650730758905410767e-02 4.835690557956695557e-02 2.530743181705474854e-01 -2.166393399238586426e-01 2.164615094661712646e-01 3.060419261455535889e-01 -1.674667149782180786e-01 -3.971441090106964111e-02 -4.719130992889404297e-01
2.680015563964843750e-01 -3.386876732110977173e-02 -2.101287692785263062e-01 3.104369938373565674e-01 2.522774040699005127e-01 1.385283768177032471e-01 -2.930102348327636719e-01 1.629291325807571411e-01 1.838874369859695435e-01 -4.474169909954071045e-01 -6.958159804344177246e-02 3.651033937931060791e-01 2.817795276641845703e-01 -2.668557763099670410e-01 -8.507798910140991211e-01 1.322339326143264771e-01 -8.914138306863605976e-04 -6.149147748947143555e-01 -2.646561861038208008e-01 -2.145745456218719482e-01
-7.540056854486465454e-02 -2.355146221816539764e-02 -4.356402456760406494e-01 9.552440792322158813e-02 -3.507819026708602905e-02 2.671689987182617188e-01 1.179787740111351013e-01 -2.042884938418865204e-02 -1.905989348888397217e-01 1.005382984876632690e-01 4.401481524109840393e-02 2.725319862365722656e-01 -1.112573686987161636e-02 1.097200587391853333e-01 -9.569907933473587036e-02 -1.904469877481460571e-01 -1.543065011501312256e-01 1.698069423437118530e-01 1.537589281797409058e-01 8.238751441240310669e-02
-9.191513806581497192e-02 3.348035812377929688e-01 -1.510472595691680908e-01 -1.796557009220123291e-01 2.167509049177169800e-01 3.751054173335433006e-03 -2.383289933204650879e-01 1.019734889268875122e-01 4.693973809480667114e-03 -2.340671718120574951e-01 -3.167673349380493164e-01 -9.395807236433029175e-02 -2.372156083583831787e-02 1.535954140126705170e-02 1.240304708480834961e-01 1.196392532438039780e-02 2.987632751464843750e-01 1.511796861886978149e-01 1.549357548356056213e-02 -4.052639007568359375e-01
-1.582564860582351685e-01 -7.321614772081375122e-02 2.719100713729858398e-01 8.505926281213760376e-02 2.895134093705564737e-04 -1.182354465126991272e-01 -1.837454587221145630e-01 2.269360609352588654e-02 5.963843688368797302e-02 1.170344278216362000e-01 -1.303354799747467041e-01 -1.713606566190719604e-01 5.534088611602783203e-02 1.281239558011293411e-02 2.528171613812446594e-02 -1.061590611934661865e-01 2.945695221424102783e-01 3.389326632022857666e-01 -3.007815182209014893e-01 8.042076230049133301e-02
-1.955331712961196899e-01 1.204683780670166016e-01 2.086786627769470215e-01 -8.603842556476593018e-02 7.133429497480392456e-02 1.463408232666552067e-03 2.791864871978759766e-01 8.511031977832317352e-03 1.253011822700500488e-01 -3.572490215301513672e-01 1.255235821008682251e-01 -1.048406437039375305e-01 -1.157879754900932312e-01 -3.745954036712646484e-01 2.952606081962585449e-01 3.853287100791931152e-01 2.865326777100563049e-02 -1.622438430786132812e-01 1.350899338722229004e-01 2.510979399085044861e-02
2.258804291486740112e-01 7.589852064847946167e-02 -1.761223077774047852e-01 -4.855315387248992920e-02 5.430487170815467834e-02 1.919368505477905273e-01 -2.613332271575927734e-01 1.317881792783737183e-01 -2.928069420158863068e-02 -2.348963171243667603e-01 6.301733106374740601e-02 2.337696850299835205e-01 1.190327405929565430e-01 -1.286026984453201294e-01 1.415298432111740112e-01 -2.361118234694004059e-02 3.068711422383785248e-02 -1.714418828487396240e-01 9.985712170600891113e-02 -1.300524622201919556e-01
-2.553109265863895416e-02 -6.551328301429748535e-02 -1.206742599606513977e-01 2.995393872261047363e-01 -7.758826017379760742e-03 3.312195539474487305e-01 -1.593064665794372559e-01 1.560768038034439087e-01 3.753728568553924561e-01 -3.138300776481628418e-02 -1.263382881879806519e-01 -5.527893453836441040e-02 2.154067009687423706e-01 1.773150712251663208e-01 -4.011822864413261414e-02 1.466897036880254745e-02 -1.512325368821620941e-02 2.616276592016220093e-02 1.612011790275573730e-01 1.125335618853569031e-01
3.550916165113449097e-02 -4.657986387610435486e-02 2.811512649059295654e-01 3.236998990178108215e-02 -2.464123070240020752e-01 -3.052148036658763885e-02 1.999989151954650879e-01 9.702481329441070557e-03 -1.953635364770889282e-02 -3.912832215428352356e-02 1.380562335252761841e-01 -1.906137615442276001e-01 1.355876028537750244e-01 2.661879956722259521e-01 -1.888463795185089111e-01 4.664708301424980164e-02 -2.420950829982757568e-01 -1.236610263586044312e-01 4.012840613722801208e-02 2.368833571672439575e-01
-1.061057969927787781e-01 -1.793632209300994873e-01 -9.005764126777648926e-02 -1.781486161053180695e-02 3.010779805481433868e-02 1.780399121344089508e-02 3.185824607498943806e-05 5.309674739837646484e-01 -2.291505411267280579e-02 2.494465857744216919e-01 5.090441703796386719e-01 5.190546810626983643e-02 3.024091757833957672e-02 -3.721174597740173340e-01 4.107546508312225342e-01 -2.089709788560867310e-02 -3.312136977910995483e-02 -1.162747815251350403e-01 7.708506286144256592e-02 4.394897446036338806e-02
1.355171650648117065e-01 -4.780858010053634644e-02 -2.642064355313777924e-02 1.586082726716995239e-01 1.950972341001033783e-02 7.239171862602233887e-01 -9.453169070184230804e-03 -1.328418776392936707e-02 6.080096960067749023e-01 9.409120678901672363e-02 -1.105249859392642975e-02 -7.302072644233703613e-02 -1.864185743033885956e-02 -9.505634009838104248e-02 -3.551902249455451965e-02 3.636671006679534912e-01 -5.644245445728302002e-02 3.103032335638999939e-02 1.686913706362247467e-02 2.713269889354705811e-01
5.144944414496421814e-02 4.483484476804733276e-02 -1.878817826509475708e-01 -2.887736633419990540e-02 -2.750698029994964600e-01 -3.858701884746551514e-02 -1.725028604269027710e-01 2.675907611846923828e-01 8.438955247402191162e-02 2.008168995380401611e-01 2.765198349952697754e-01 -2.410023361444473267e-01 -1.347638815641403198e-01 -7.724430412054061890e-02 -1.962701231241226196e-02 -1.055606380105018616e-01 -6.144974380731582642e-02 1.718225702643394470e-02 -1.980859041213989258e-02 1.815447770059108734e-02
2.264393419027328491e-01 -1.856736689805984497e-01 -4.479705542325973511e-02 -2.108351290225982666e-01 -8.719726651906967163e-02 1.991435699164867401e-02 -2.638681046664714813e-02 3.564992249011993408e-01 -1.992939598858356476e-02 2.681898176670074463e-01 4.242683947086334229e-01 -2.248540967702865601e-01 3.735204786062240601e-02 1.274011433124542236e-01 1.173283830285072327e-01 8.249413967132568359e-02 -1.704245805740356445e-02 1.074514910578727722e-01 1.519531570374965668e-02 -5.472770333290100098e-02
2.267070412635803223e-01 1.046360656619071960e-01 -1.264871060848236084e-01 1.982699185609817505e-01 1.973791569471359253e-01 9.771261364221572876e-02 -2.622768282890319824e-01 2.864211238920688629e-02 -9.503674507141113281e-02 -1.031438261270523071e-01 -4.337530210614204407e-02 1.364328116178512573e-01 8.885334245860576630e-03 -1.020152196288108826e-01 1.437038332223892212e-01 -6.435429211705923080e-03 -2.140358537435531616e-01 -1.512864977121353149e-01 1.555983424186706543e-01 1.881114691495895386e-01
-2.555195689201354980e-01 2.251350134611129761e-01 2.065528631210327148e-01 3.337651491165161133e-02 1.419167816638946533e-01 9.180449694395065308e-02 -1.558688580989837646e-01 -2.640244364738464355e-01 -9.168955683708190918e-02 1.196931898593902588e-01 1.110988184809684753e-01 -1.517309099435806274e-01 -1.295139491558074951e-01 1.469615697860717773e-01 -1.062129288911819458e-01 -1.402245014905929565e-01 -1.791405528783798218e-01 2.807409465312957764e-01 -2.074304670095443726e-01 4.518719855695962906e-03
4.206494241952896118e-02 -2.148849219083786011e-01 -2.815820276737213135e-01 4.502710886299610138e-03 -8.648490160703659058e-02 5.976855009794235229e-02 2.484314441680908203e-01 -2.584759891033172607e-01 -4.036248102784156799e-02 2.427167147397994995e-01 1.467453241348266602e-01 -1.956221014261245728e-01 2.408889681100845337e-01 5.414362624287605286e-02 -3.921740129590034485e-02 -1.455132663249969482e-01 -1.534019261598587036e-01 1.456673145294189453e-01 1.789904236793518066e-01 -1.877747662365436554e-02
-1.154293194413185120e-01 -1.728433370590209961e-01 -8.542990684509277344e-02 -1.402999013662338257e-01 1.836729496717453003e-01 -2.125921696424484253e-01 -1.329071968793869019e-01 -6.769772619009017944e-02 6.405778229236602783e-02 3.587650656700134277e-01 3.847322613000869751e-02 -2.558751702308654785e-01 -1.543779075145721436e-01 -8.266425132751464844e-02 1.665003001689910889e-01 -1.287524253129959106e-01 1.162791699171066284e-01 1.501243095844984055e-02 1.375109702348709106e-02 -1.458711624145507812e-01
-1.616056263446807861e-01 -2.222102731466293335e-01 7.622291147708892822e-02 8.403237164020538330e-02 -1.757614761590957642e-01 -5.113044381141662598e-02 2.187591940164566040e-01 -1.122301667928695679e-01 4.977782815694808960e-02 1.248240768909454346e-01 -2.079282887279987335e-02 -4.779920447617769241e-03 -6.683731824159622192e-02 -2.688012421131134033e-01 -1.172036398202180862e-02 8.371527493000030518e-02 -4.645822942256927490e-02 1.793800108134746552e-02 5.802020058035850525e-02 -1.488852649927139282e-01
-2.117641717195510864e-01 -1.334175914525985718e-01 3.162565231323242188e-01 9.622418880462646484e-02 -1.813517659902572632e-01 -2.030661553144454956e-01 -3.011715114116668701e-01 1.100437045097351074e-01 6.205369159579277039e-02 -2.616993896663188934e-02 -8.339925110340118408e-02 -1.019293144345283508e-01 1.110334396362304688e-01 -1.216291412711143494e-01 1.177207827568054199e-01 -1.236860975623130798e-01 1.570369750261306763e-01 2.474824339151382446e-02 -1.146140173077583313e-01 -4.495913162827491760e-02
-2.527209520339965820e-01 3.306333208456635475e-03 1.596559882164001465e-01 -2.712270617485046387e-01 -2.404263466596603394e-01 1.613263487815856934e-01 3.576001524925231934e-01 9.318069554865360260e-03 -2.270102314651012421e-02 -1.022610738873481750e-01 2.707828767597675323e-02 -1.409338712692260742e-01 1.112752854824066162e-01 -7.371449470520019531e-02 2.059913277626037598e-01 -1.382093280553817749e-01 -1.238003224134445190e-01 -4.527438431978225708e-02 -4.615849256515502930e-01 1.184414848685264587e-01
3.017885088920593262e-01 -1.119696795940399170e-01 -6.768770515918731689e-02 -1.427270472049713135e-01 1.626854389905929565e-01 -1.323035508394241333e-01 -2.947213053703308105e-01 1.674108654260635376e-01 1.535529643297195435e-01 1.341474354267120361e-01 -1.279916018247604370e-01 9.836857020854949951e-02 7.155897468328475952e-02 -7.546731736510992050e-03 -6.537259370088577271e-02 -2.790409028530120850e-01 -2.713256776332855225e-01 5.588372703641653061e-03 7.038363814353942871e-02 2.121271379292011261e-02
2.463064342737197876e-02 2.042091488838195801e-01 -1.531497538089752197e-01 -3.266250491142272949e-01 -2.780892886221408844e-02 1.786159127950668335e-01 1.222657039761543274e-01 -2.615706026554107666e-01 1.068562865257263184e-01 5.342676863074302673e-02 7.527923583984375000e-02 -6.723723560571670532e-02 1.075985953211784363e-01 1.312953382730484009e-01 1.544048357754945755e-02 -2.106592357158660889e-01 8.481909334659576416e-02 -1.767127774655818939e-02 -1.950047016143798828e-01 -9.089636802673339844e-02
2.353098690509796143e-01 -8.092916756868362427e-02 -3.837425112724304199e-01 -2.376646697521209717e-01 6.681748479604721069e-02 -3.358752653002738953e-02 1.312601715326309204e-01 -5.445609614253044128e-02 1.623459458351135254e-01 6.046859174966812134e-02 1.126816123723983765e-01 -3.098074346780776978e-02 -3.026655614376068115e-01 1.781341284513473511e-01 -1.198845058679580688e-01 1.260125041007995605e-01 -5.644316077232360840e-01 -1.465002000331878662e-01 3.936002850532531738e-01 -1.319632232189178467e-01
-3.291510790586471558e-02 -3.529811743646860123e-03 -9.864376485347747803e-02 6.490777712315320969e-03 2.304905354976654053e-01 -4.044647812843322754e-01 5.766716226935386658e-02 -1.487903892993927002e-01 -1.492175906896591187e-01 -2.213112860918045044e-01 -1.843030154705047607e-01 2.813081629574298859e-02 -2.230064272880554199e-01 2.369185537099838257e-01 4.098859131336212158e-01 1.137572973966598511e-01 -1.393117010593414307e-01 -2.429005354642868042e-01 1.989332586526870728e-01 -6.421872228384017944e-02
6.085997447371482849e-02 -2.300585433840751648e-02 2.539368867874145508e-01 1.602826267480850220e-01 1.832719594240188599e-01 -1.558351516723632812e-01 1.658703684806823730e-01 -1.300756186246871948e-01 -8.698102086782455444e-02 3.285245597362518311e-02 -9.239863604307174683e-02 1.660827174782752991e-02 2.025341838598251343e-01 -1.264032870531082153e-01 2.724280357360839844e-01 6.208860781043767929e-03 1.151619106531143188e-02 -2.398961037397384644e-01 -9.421989321708679199e-02 4.873143509030342102e-02
-2.632459104061126709e-01 2.162186205387115479e-01 1.913818120956420898e-01 5.178018659353256226e-02 -6.041397526860237122e-02 -1.108651831746101379e-01 -2.223414033651351929e-01 -1.754146814346313477e-01 -2.342523336410522461e-01 -2.241706550121307373e-01 -3.474445044994354248e-01 -1.455679386854171753e-01 7.911618798971176147e-02 -4.420394897460937500e-01 -4.299041256308555603e-02 1.999399960041046143e-01 4.238694906234741211e-01 -1.859273016452789307e-01 1.043776143342256546e-02 -2.093410938978195190e-01
2.657434046268463135e-01 8.874708414077758789e-02 -9.074889868497848511e-02 -1.521156579256057739e-01 9.738691151142120361e-02 -8.834579586982727051e-02 -1.329372227191925049e-01 -4.165391325950622559e-01 1.618514209985733032e-01 -1.817057430744171143e-01 -3.571798503398895264e-01 -5.560013279318809509e-02 1.430115755647420883e-02 -2.775452798232436180e-03 -8.330655843019485474e-02 1.359769105911254883e-01 1.520770937204360962e-01 -7.915949099697172642e-04 1.042074710130691528e-01 -9.585289657115936279e-02
7.008123211562633514e-03 -6.597206741571426392e-02 1.663574576377868652e-01 -1.150581911206245422e-01 -1.068907752633094788e-01 -3.424915671348571777e-01 -2.845070958137512207e-01 -1.367221623659133911e-01 2.603657245635986328e-01 -1.058191135525703430e-01 -1.241882741451263428e-01 -2.479803115129470825e-01 5.726282671093940735e-02 -8.485110104084014893e-02 3.661262691020965576e-01 1.661839038133621216e-01 1.375730037689208984e-01 -1.245158761739730835e-01 -1.072930470108985901e-01 -1.425163149833679199e-01
1.253522634506225586e-01 -2.313061803579330444e-01 1.955527514219284058e-01 2.273336797952651978e-01 2.762729227542877197e-01 1.000170260667800903e-01 1.770267933607101440e-01 4.014827311038970947e-02 -2.423803806304931641e-01 -1.136318668723106384e-01 3.915601968765258789e-02 -1.264893263578414917e-01 -1.060198470950126648e-01 2.666296660900115967e-01 -3.425755202770233154e-01 1.650360077619552612e-01 1.738405376672744751e-01 -1.400368511676788330e-01 -2.593380212783813477e-01 -2.681474685668945312e-01
-4.029398560523986816e-01 3.852151632308959961e-01 1.585338711738586426e-01 3.036487996578216553e-01 -2.722176909446716309e-01 -2.707824707031250000e-01 -4.083752036094665527e-01 8.766756951808929443e-02 5.133901908993721008e-02 -2.483888901770114899e-02 -4.825344979763031006e-01 5.298077464103698730e-01 -9.673822671175003052e-02 -2.652570009231567383e-01 -1.783776283264160156e-01 -4.698872864246368408e-01 6.168957948684692383e-01 -4.928202554583549500e-02 1.865696758031845093e-01 -1.944394558668136597e-01
-1.996886283159255981e-01 -3.627508580684661865e-01 1.505020111799240112e-01 -2.815014719963073730e-01 -8.257022500038146973e-02 -2.916873991489410400e-01 -8.616788685321807861e-02 2.388855963945388794e-01 -9.542248398065567017e-02 -1.731734573841094971e-01 2.215907126665115356e-01 6.142694503068923950e-02 4.320674575865268707e-03 -4.584769606590270996e-01 -3.663147687911987305e-01 2.453060895204544067e-01 -2.208577394485473633e-01 -4.281803071498870850e-01 1.128844469785690308e-01 1.195712536573410034e-01
-7.898197323083877563e-02 1.877281069755554199e-01 -6.626444309949874878e-02 1.881651394069194794e-02 -4.477510694414377213e-03 -1.677757352590560913e-01 1.689426600933074951e-01 -3.112983703613281250e-02 -3.059257008135318756e-02 4.848707094788551331e-02 1.706841289997100830e-01 8.998750895261764526e-02 2.239131182432174683e-02 -2.166553586721420288e-01 1.720919273793697357e-02 -1.917251199483871460e-01 2.652710974216461182e-01 8.523940294981002808e-02 1.568809896707534790e-01 -2.421867996454238892e-01
2.836775481700897217e-01 -1.001406088471412659e-01 4.670615494251251221e-02 2.500123977661132812e-01 -1.498368289321660995e-02 1.567159444093704224e-01 1.357706785202026367e-01 -4.465443491935729980e-01 5.888632684946060181e-02 -2.826869189739227295e-01 1.610855907201766968e-01 -1.346523687243461609e-02 1.315849274396896362e-01 3.118811249732971191e-01 1.238777413964271545e-01 6.018200516700744629e-01 -1.664613336324691772e-01 3.374190926551818848e-01 -1.142567396163940430e-01 4.254120588302612305e-02
1.802231669425964355e-01 1.097750738263130188e-01 2.005818635225296021e-01 3.293732404708862305e-01 8.878615498542785645e-02 3.185545280575752258e-02 2.329512238502502441e-01 1.242281943559646606e-01 6.505878269672393799e-02 2.986691705882549286e-02 1.509043574333190918e-01 -9.161015041172504425e-03 2.505494356155395508e-01 -5.950212106108665466e-02 2.702364325523376465e-01 4.541821777820587158e-01 2.526142820715904236e-02 -3.552692756056785583e-02 -2.625755667686462402e-01 5.793821066617965698e-03
3.949760198593139648e-01 1.242962256073951721e-01 1.955592483282089233e-01 3.036773800849914551e-01 -1.974400505423545837e-02 -9.841585904359817505e-02 -7.833425700664520264e-02 1.829548627138137817e-01 -1.649620383977890015e-01 -1.916033178567886353e-01 7.638081908226013184e-02 1.023571491241455078e-01 -3.676915913820266724e-02 5.987395718693733215e-02 2.509013414382934570e-01 4.493936598300933838e-01 2.801090180873870850e-01 6.886238604784011841e-02 3.770806267857551575e-02 -3.367819488048553467e-01
3.493026196956634521e-01 6.567216664552688599e-02 -1.945965588092803955e-01 1.720884889364242554e-01 -2.148429602384567261e-01 -2.182505279779434204e-01 3.589098751544952393e-01 -4.174045324325561523e-01 1.837361901998519897e-01 3.169733881950378418e-01 1.879799216985702515e-01 -2.109854072332382202e-01 2.152364253997802734e-01 4.895493015646934509e-02 -5.370658636093139648e-01 5.578703880310058594e-01 -2.697381563484668732e-02 -3.360206186771392822e-01 1.070261299610137939e-01 -2.551887333393096924e-01
6.541686654090881348e-01 -3.018039762973785400e-01 3.471362590789794922e-01 2.705075144767761230e-01 -2.670873999595642090e-01 1.993395090103149414e-01 3.297553360462188721e-01 -1.707832366228103638e-01 -2.127801328897476196e-01 1.467708796262741089e-01 -7.372309919446706772e-03 -1.422664374113082886e-01 -5.321145430207252502e-02 3.532769978046417236e-01 -6.419732421636581421e-02 2.271222323179244995e-01 1.198677495121955872e-01 -3.515777885913848877e-01 -9.920517913997173309e-03 4.274675548076629639e-01
1.801732629537582397e-01 1.051110625267028809e-01 7.388430833816528320e-02 7.520419359207153320e-02 -1.912515982985496521e-02 9.086608141660690308e-02 -4.265742003917694092e-02 6.706880331039428711e-01 -2.287463396787643433e-01 -2.514441609382629395e-01 -8.345735073089599609e-02 -2.749320566654205322e-01 3.589569330215454102e-01 4.314780533313751221e-01 -3.084721267223358154e-01 1.753663718700408936e-01 8.669718354940414429e-02 1.748605966567993164e-01 7.217171788215637207e-02 -5.687357187271118164e-01
3.187522292137145996e-01 -1.417072713375091553e-01 1.736406236886978149e-01 -3.078970126807689667e-02 9.785217046737670898e-02 -1.221487820148468018e-01 9.918567538261413574e-02 9.948110207915306091e-03 -1.984670460224151611e-01 -3.670617565512657166e-02 -4.296486079692840576e-02 -2.584421634674072266e-01 -5.721155926585197449e-02 4.496829584240913391e-03 1.449991669505834579e-02 2.668992280960083008e-01 5.001683905720710754e-02 -2.112134099006652832e-01 -2.052781730890274048e-01 -4.089690744876861572e-01
2.345786243677139282e-01 1.856442838907241821e-01 -3.515604734420776367e-01 8.150129020214080811e-02 1.347362548112869263e-01 -4.553399235010147095e-02 -2.385302931070327759e-01 4.827036559581756592e-01 -1.043176054954528809e-01 7.511786650866270065e-03 -2.338533252477645874e-01 7.454776763916015625e-02 6.606365740299224854e-02 -9.423845261335372925e-02 -3.058738820254802704e-02 -4.634946286678314209e-01 -7.360214740037918091e-02 3.678561374545097351e-02 1.967831999063491821e-01 -6.593590229749679565e-02
-2.048662751913070679e-01 -1.113226935267448425e-01 3.100939989089965820e-01 2.518063411116600037e-02 -3.209095895290374756e-01 4.339626431465148926e-02 -3.225190564990043640e-02 -2.117504030466079712e-01 -8.641573041677474976e-02 7.764071691781282425e-03 8.302412927150726318e-02 -3.420563340187072754e-01 -7.375410944223403931e-02 -1.264204531908035278e-01 -1.025899052619934082e-01 2.483941167593002319e-01 2.309787087142467499e-02 -8.856872469186782837e-02 -2.576876580715179443e-01 -2.942894697189331055e-01
1.299056410789489746e-01 -1.811818182468414307e-01 -2.921569645404815674e-01 2.835160493850708008e-01 1.131784468889236450e-01 1.629901677370071411e-01 -2.839618027210235596e-01 2.695708870887756348e-01 1.866648793220520020e-01 -1.703663766384124756e-01 1.724204421043395996e-01 2.294391989707946777e-01 2.878457903861999512e-01 -2.588655054569244385e-01 -2.381057420279830694e-04 -2.042124718427658081e-01 9.292104095220565796e-02 -5.020275115966796875e-01 9.810636937618255615e-02 -1.595141142606735229e-01
