-1.846237182617187500e-01
1.379226446151733398e-01
2.268775105476379395e-01
-1.852988898754119873e-01
-4.195927083492279053e-02
-1.739266067743301392e-01
-2.175473719835281372e-01
2.585272490978240967e-01
-7.761903572827577591e-03
6.200609728693962097e-02
-9.922713786363601685e-02
1.233442649245262146e-01
4.597205668687820435e-02
-2.494042962789535522e-01
-1.734693050384521484e-01
-8.478298783302307129e-02
4.031187295913696289e-02
4.248319193720817566e-02
1.859191805124282837e-01
5.359781906008720398e-02
-5.176030099391937256e-02
1.693882048130035400e-01
5.242608115077018738e-02
-8.266917616128921509e-02
1.791930347681045532e-01
2.220580130815505981e-01
3.245083242654800415e-02
1.804002225399017334e-01
3.009914159774780273e-01
1.551805883646011353e-01
4.498760700225830078e-01
2.334511578083038330e-01
2.134916186332702637e-02
5.354521274566650391e-01
-2.096400968730449677e-02
3.371527493000030518e-01
3.105410635471343994e-01
3.520714342594146729e-01
-1.277365721762180328e-02
1.781800538301467896e-01
7.773807644844055176e-02
2.227755337953567505e-01
-2.150671742856502533e-02
-3.256556391716003418e-02
1.637598425149917603e-01
-1.255007646977901459e-02
9.582782536745071411e-02
2.070100605487823486e-01
1.519220769405364990e-01
-1.795581579208374023e-01
-2.166344374418258667e-01
-1.156794875860214233e-01
2.392392419278621674e-02
7.318469136953353882e-02
1.366505324840545654e-01
1.214388310909271240e-01
1.176073327660560608e-01
-3.944148868322372437e-02
-5.620296671986579895e-02
-1.792512238025665283e-01
1.801609992980957031e-01
2.065481543540954590e-01
6.588174030184745789e-03
1.119763031601905823e-02
1.099103763699531555e-01
5.644394084811210632e-02
3.237528800964355469e-01
2.092241495847702026e-01
-1.019650399684906006e-01
-2.572994865477085114e-02
2.310172617435455322e-01
2.615827322006225586e-01
5.147287249565124512e-02
2.068938016891479492e-01
-7.095181196928024292e-02
3.716750741004943848e-01
2.255617976188659668e-01
2.184922099113464355e-01
1.899903714656829834e-01
2.446389757096767426e-02
