1.522174179553985596e-01
2.201258763670921326e-02
8.068826794624328613e-02
-5.742096155881881714e-02
-2.168560773134231567e-01
1.414407342672348022e-01
-1.656437069177627563e-01
-4.037928208708763123e-02
3.098239600658416748e-01
2.210637554526329041e-02
-7.866205275058746338e-02
7.323838304728269577e-03
1.743044853210449219e-01
-6.780428439378738403e-02
-3.679983690381050110e-02
2.549352310597896576e-02
1.181458607316017151e-01
-1.079450547695159912e-01
-7.158916443586349487e-02
-3.056093454360961914e-01
-2.085378021001815796e-02
2.634028494358062744e-01
2.003450840711593628e-01
1.640520989894866943e-01
-4.792761430144309998e-02
3.839083909988403320e-01
4.187889695167541504e-01
1.556945294141769409e-01
4.430705308914184570e-01
-1.349067091941833496e-01
4.122312068939208984e-01
1.318597197532653809e-01
2.817269265651702881e-01
6.445742845535278320e-01
3.687481209635734558e-02
1.452842801809310913e-01
1.367640048265457153e-01
2.019875645637512207e-01
1.731398701667785645e-01
-7.009996101260185242e-03
2.183964103460311890e-01
1.284582167863845825e-01
-2.496409974992275238e-02
1.343138217926025391e-01
-1.266890168190002441e-01
-1.764768175780773163e-02
-6.610704958438873291e-02
6.306526809930801392e-02
-4.899305105209350586e-02
1.032872945070266724e-01
1.640964448451995850e-01
1.100760996341705322e-01
1.699670106172561646e-01
1.631922721862792969e-01
-9.411635249853134155e-02
-8.434478938579559326e-02
5.429630726575851440e-02
1.017892435193061829e-01
-1.520092189311981201e-01
-7.296997308731079102e-02
9.310190379619598389e-02
1.122119948267936707e-01
-4.193960875272750854e-02
7.794581353664398193e-02
2.390707135200500488e-01
-3.626317530870437622e-02
9.134142845869064331e-02
-1.484130229800939560e-02
6.031142175197601318e-02
1.021890491247177124e-01
2.623864114284515381e-01
2.569185495376586914e-01
2.070709913969039917e-01
7.929553091526031494e-02
-1.633767783641815186e-02
3.780370950698852539e-01
3.383085429668426514e-01
5.323910154402256012e-03
2.492901086807250977e-01
2.393051236867904663e-01
