-1.463664919137954712e-01 -7.196031510829925537e-02 -1.559870038181543350e-02 -3.275173716247081757e-03
-1.475895792245864868e-01 -3.442181348800659180e-01 -7.221970707178115845e-02 -6.720495969057083130e-02
3.202430531382560730e-02 6.412592530250549316e-02 1.893534325063228607e-02 -9.538025595247745514e-03
-1.647936403751373291e-01 -2.648288942873477936e-02 -1.669158637523651123e-01 -3.638410242274403572e-03
9.726821444928646088e-03 3.880150243639945984e-02 1.530199497938156128e-01 5.343357846140861511e-02
-1.315007805824279785e-01 -3.392041847109794617e-02 -1.412968635559082031e-01 -3.610741794109344482e-01
1.127624884247779846e-01 -6.147495284676551819e-02 -1.664351858198642731e-02 -1.994514614343643188e-01
-1.744208931922912598e-01 2.294373810291290283e-01 1.309072613716125488e+00 4.538883566856384277e-01
-2.571846246719360352e-01 -2.051474526524543762e-03 -7.551102638244628906e-01 -1.937720775604248047e+00
-3.244359195232391357e-01 2.588691413402557373e-01 -4.739038646221160889e-01 2.247016876935958862e-01
-1.863424032926559448e-01 1.214355453848838806e-01 -2.120647132396697998e-01 8.794215321540832520e-02
5.859254673123359680e-02 -1.523715108633041382e-01 -5.648504197597503662e-02 6.714889407157897949e-02
3.813273087143898010e-02 -1.819349974393844604e-01 5.271137878298759460e-02 -1.311822533607482910e-01
2.901566214859485626e-02 3.920086100697517395e-02 3.546589612960815430e-01 -3.909599408507347107e-02
5.911553278565406799e-03 -2.596717476844787598e-01 -4.117511212825775146e-02 -9.280484914779663086e-02
-1.213625743985176086e-01 -2.757564652711153030e-03 3.520660474896430969e-02 9.809711575508117676e-02
1.857210695743560791e-01 1.530373119749128819e-03 1.536600738763809204e-01 2.312047481536865234e-01
1.220829188823699951e-01 1.196755934506654739e-02 -4.145845398306846619e-02 -2.285857126116752625e-02
4.233957082033157349e-02 -1.588755697011947632e-01 1.729641705751419067e-01 -2.459928020834922791e-02
1.983622759580612183e-01 3.581233024597167969e-01 1.292266100645065308e-01 2.593836188316345215e-02
7.604274153709411621e-02 -1.993079036474227905e-01 4.619092866778373718e-02 -1.167237609624862671e-01
-3.960663825273513794e-02 1.866325177252292633e-02 3.341737017035484314e-02 -4.977667331695556641e-02
8.005048334598541260e-02 8.086076378822326660e-02 -1.326095163822174072e-01 3.387942910194396973e-01
-3.379973173141479492e-01 1.130163762718439102e-02 -8.347440510988235474e-02 1.173090785741806030e-01
-1.808075606822967529e-01 -1.404459774494171143e-01 -1.881592273712158203e-01 7.749260216951370239e-02
1.505679637193679810e-01 -7.614154368638992310e-02 -1.016023010015487671e-01 -9.733148664236068726e-02
1.622611135244369507e-01 3.206324204802513123e-02 1.661927700042724609e-01 2.496646493673324585e-01
-5.042997002601623535e-02 -1.931595504283905029e-01 4.522203207015991211e-01 -6.530383229255676270e-02
-1.457369178533554077e-01 -3.882531225681304932e-01 -5.810702592134475708e-02 -4.188877105712890625e+00
-2.516464293003082275e-01 -8.423081040382385254e-02 -2.036257684230804443e-01 4.200505092740058899e-02
-1.323678642511367798e-01 -1.923597455024719238e-01 1.752262860536575317e-01 -1.817083172500133514e-02
-3.987995162606239319e-02 2.057092040777206421e-01 1.374426577240228653e-02 -3.314156085252761841e-02
3.365186750888824463e-01 -9.026071429252624512e-02 5.760506540536880493e-02 1.161559373140335083e-01
-7.871019840240478516e-02 1.038131583482027054e-02 -2.247994691133499146e-01 1.414351612329483032e-01
2.420057058334350586e-01 -3.634994924068450928e-01 -2.011481821537017822e-01 -4.928087815642356873e-02
1.662144809961318970e-01 2.741728723049163818e-01 3.731901198625564575e-02 8.252363651990890503e-02
-1.942799836397171021e-01 1.135462373495101929e-01 -5.891178920865058899e-02 -3.399738669395446777e-01
-1.764482110738754272e-01 -4.562406837940216064e-01 4.845765978097915649e-02 -1.681260466575622559e-01
-1.143038421869277954e-01 6.660314649343490601e-02 -1.198724508285522461e-01 -9.820710122585296631e-02
-4.686823487281799316e-01 -4.715107381343841553e-02 -5.353090539574623108e-02 3.687511980533599854e-01
6.130119785666465759e-02 -1.784500926733016968e-01 -9.094586223363876343e-02 1.011058539152145386e-01
-1.596529483795166016e-01 7.157243043184280396e-02 -1.175023019313812256e-01 -3.915663436055183411e-02
4.121695458889007568e-02 -7.136494386941194534e-03 -2.371748536825180054e-02 6.929378956556320190e-02
-1.815543025732040405e-01 2.811660617589950562e-02 5.700378492474555969e-02 -1.451598405838012695e-01
2.043630927801132202e-02 -1.739387661218643188e-01 -3.457828983664512634e-02 8.487200736999511719e-02
3.014107607305049896e-02 -1.108220666646957397e-01 -1.745155453681945801e-02 -1.121096312999725342e-01
-2.235418371856212616e-02 9.383362717926502228e-03 5.084061250090599060e-02 1.334661245346069336e-01
2.738817967474460602e-02 -3.238849341869354248e-02 9.223365187644958496e-01 -6.239153444766998291e-02
-4.040944948792457581e-02 4.917375370860099792e-02 3.649085387587547302e-02 -3.122020483016967773e+00
1.507224440574645996e-01 1.051415223628282547e-02 3.743204474449157715e-01 3.783957287669181824e-02
-5.470890179276466370e-02 8.662439882755279541e-03 8.127712607383728027e-01 3.581183403730392456e-02
-6.236308440566062927e-02 1.148839201778173447e-02 -5.299112200736999512e-02 9.708368033170700073e-02
1.105257719755172729e-01 1.003535985946655273e-01 -1.249415986239910126e-02 -1.832951307296752930e-01
5.951889976859092712e-02 -9.412769228219985962e-02 -1.422188710421323776e-02 -2.433268353343009949e-02
-1.930415481328964233e-01 8.807637728750705719e-03 2.738278806209564209e-01 -7.436439394950866699e-02
3.450674936175346375e-02 8.042478561401367188e-02 -2.892900258302688599e-02 -1.043135002255439758e-01
-5.714422836899757385e-02 4.150233045220375061e-02 -8.998978137969970703e-02 6.304918974637985229e-02
-7.039528340101242065e-02 -5.232309177517890930e-02 -4.675238206982612610e-02 -2.840611152350902557e-03
-9.059391170740127563e-02 -8.949436992406845093e-02 -4.674007650464773178e-03 -1.992631703615188599e-01
1.187711432576179504e-01 1.801938749849796295e-02 -7.576017826795578003e-02 -1.202964782714843750e-01
1.249771714210510254e-01 -2.788063287734985352e-01 1.384206712245941162e-01 3.544258475303649902e-01
7.809046655893325806e-02 -3.096353113651275635e-01 3.350226879119873047e-01 -1.460451483726501465e-01
1.730008423328399658e-01 5.977245420217514038e-02 -1.604188978672027588e-01 2.932976186275482178e-01
-2.066135257482528687e-01 2.403358966112136841e-01 -1.134475395083427429e-01 -4.116550087928771973e-01
-2.029505521059036255e-01 -1.610362678766250610e-01 -3.075587749481201172e-01 1.603814363479614258e-01
6.643255800008773804e-02 -4.628214985132217407e-02 9.483957290649414062e-02 3.346984386444091797e-01
3.374010622501373291e-01 1.199679374694824219e-01 1.989924460649490356e-01 1.371911764144897461e-01
-2.927724421024322510e-01 9.044472128152847290e-02 8.172427415847778320e-01 -3.521695435047149658e-01
1.032338514924049377e-01 -3.384648561477661133e-01 6.453197002410888672e-01 1.784561276435852051e-01
-3.665279150009155273e-01 -2.464149147272109985e-01 3.821065723896026611e-01 -4.396348893642425537e-01
-1.050952002406120300e-01 2.203531712293624878e-01 1.761352270841598511e-01 -2.817428708076477051e-01
-1.827354580163955688e-01 2.215537726879119873e-01 7.633972167968750000e-02 -1.705461442470550537e-01
6.660960614681243896e-02 -1.243178173899650574e-01 -3.550202772021293640e-02 -9.077476263046264648e-01
1.191520765423774719e-01 1.716977208852767944e-01 -2.643065452575683594e-01 -5.017542839050292969e-02
7.868428528308868408e-02 -1.989130824804306030e-01 -4.463954567909240723e-01 -1.783319115638732910e-01
2.317811846733093262e-01 3.146898150444030762e-01 2.298773378133773804e-01 4.586494565010070801e-01
-1.851854324340820312e-01 -1.279528588056564331e-01 7.112804800271987915e-02 -5.339047908782958984e-01
-9.343787282705307007e-02 -4.167810678482055664e-01 -1.338109374046325684e-01 -2.440452575683593750e-01
-1.367952823638916016e-01 2.539600431919097900e-01 3.628446161746978760e-02 -3.987818062305450439e-01
-2.513756155967712402e-01 7.294850051403045654e-02 1.356741786003112793e-01 4.052776396274566650e-01
